{"learner":{"attributes":{"scikit_learn":"{\"_estimator_type\": \"classifier\"}"},"feature_names":[],"feature_types":[],"gradient_booster":{"model":{"cats":{"enc":[],"feature_segments":[],"sorted_idx":[]},"gbtree_model_param":{"num_parallel_tree":"1","num_trees":"500"},"iteration_indptr":[0,1,2,3,4,5,6,7,8,9,10,11,12,13,14,15,16,17,18,19,20,21,22,23,24,25,26,27,28,29,30,31,32,33,34,35,36,37,38,39,40,41,42,43,44,45,46,47,48,49,50,51,52,53,54,55,56,57,58,59,60,61,62,63,64,65,66,67,68,69,70,71,72,73,74,75,76,77,78,79,80,81,82,83,84,85,86,87,88,89,90,91,92,93,94,95,96,97,98,99,100,101,102,103,104,105,106,107,108,109,110,111,112,113,114,115,116,117,118,119,120,121,122,123,124,125,126,127,128,129,130,131,132,133,134,135,136,137,138,139,140,141,142,143,144,145,146,147,148,149,150,151,152,153,154,155,156,157,158,159,160,161,162,163,164,165,166,167,168,169,170,171,172,173,174,175,176,177,178,179,180,181,182,183,184,185,186,187,188,189,190,191,192,193,194,195,196,197,198,199,200,201,202,203,204,205,206,207,208,209,210,211,212,213,214,215,216,217,218,219,220,221,222,223,224,225,226,227,228,229,230,231,232,233,234,235,236,237,238,239,240,241,242,243,244,245,246,247,248,249,250,251,252,253,254,255,256,257,258,259,260,261,262,263,264,265,266,267,268,269,270,271,272,273,274,275,276,277,278,279,280,281,282,283,284,285,286,287,288,289,290,291,292,293,294,295,296,297,298,299,300,301,302,303,304,305,306,307,308,309,310,311,312,313,314,315,316,317,318,319,320,321,322,323,324,325,326,327,328,329,330,331,332,333,334,335,336,337,338,339,340,341,342,343,344,345,346,347,348,349,350,351,352,353,354,355,356,357,358,359,360,361,362,363,364,365,366,367,368,369,370,371,372,373,374,375,376,377,378,379,380,381,382,383,384,385,386,387,388,389,390,391,392,393,394,395,396,397,398,399,400,401,402,403,404,405,406,407,408,409,410,411,412,413,414,415,416,417,418,419,420,421,422,423,424,425,426,427,428,429,430,431,432,433,434,435,436,437,438,439,440,441,442,443,444,445,446,447,448,449,450,451,452,453,454,455,456,457,458,459,460,461,462,463,464,465,466,467,468,469,470,471,472,473,474,475,476,477,478,479,480,481,482,483,484,485,486,487,488,489,490,491,492,493,494,495,496,497,498,499,500],"tree_info":[0,0,0,0,0,0,0,0,0,0,0,0,0,0,0,0,0,0,0,0,0,0,0,0,0,0,0,0,0,0,0,0,0,0,0,0,0,0,0,0,0,0,0,0,0,0,0,0,0,0,0,0,0,0,0,0,0,0,0,0,0,0,0,0,0,0,0,0,0,0,0,0,0,0,0,0,0,0,0,0,0,0,0,0,0,0,0,0,0,0,0,0,0,0,0,0,0,0,0,0,0,0,0,0,0,0,0,0,0,0,0,0,0,0,0,0,0,0,0,0,0,0,0,0,0,0,0,0,0,0,0,0,0,0,0,0,0,0,0,0,0,0,0,0,0,0,0,0,0,0,0,0,0,0,0,0,0,0,0,0,0,0,0,0,0,0,0,0,0,0,0,0,0,0,0,0,0,0,0,0,0,0,0,0,0,0,0,0,0,0,0,0,0,0,0,0,0,0,0,0,0,0,0,0,0,0,0,0,0,0,0,0,0,0,0,0,0,0,0,0,0,0,0,0,0,0,0,0,0,0,0,0,0,0,0,0,0,0,0,0,0,0,0,0,0,0,0,0,0,0,0,0,0,0,0,0,0,0,0,0,0,0,0,0,0,0,0,0,0,0,0,0,0,0,0,0,0,0,0,0,0,0,0,0,0,0,0,0,0,0,0,0,0,0,0,0,0,0,0,0,0,0,0,0,0,0,0,0,0,0,0,0,0,0,0,0,0,0,0,0,0,0,0,0,0,0,0,0,0,0,0,0,0,0,0,0,0,0,0,0,0,0,0,0,0,0,0,0,0,0,0,0,0,0,0,0,0,0,0,0,0,0,0,0,0,0,0,0,0,0,0,0,0,0,0,0,0,0,0,0,0,0,0,0,0,0,0,0,0,0,0,0,0,0,0,0,0,0,0,0,0,0,0,0,0,0,0,0,0,0,0,0,0,0,0,0,0,0,0,0,0,0,0,0,0,0,0,0,0,0,0,0,0,0,0,0,0,0,0,0,0,0,0,0,0,0,0,0,0,0,0,0,0,0,0,0,0,0,0,0,0,0,0,0,0,0,0,0,0,0,0,0,0,0,0,0,0,0,0,0,0,0,0,0,0,0,0,0,0,0,0,0,0,0,0,0,0,0,0,0],"trees":[{"base_weights":[1.6928972E-1,-1.6714654E0,1.4582143E0,-3.9839033E-2,4.5618364E-1,1.6459128E0,-3.8181815E-2,-3.6862746E-2,1.5466049E0,-2.8571429E-2,1.6696239E0,-2.2222223E-2,1.7224092E0,1.3928313E0,1.8650827E0,3.7522398E-2,-2E-2,-3.4074076E-2,1.5168526E0,1.2122619E0,3.7748624E-2,-2.6666667E-2,3.124286E-2,3.5378747E-2,-2.4E-2],"categories":[],"categories_nodes":[],"categories_segments":[],"categories_sizes":[],"default_left":[0,0,0,0,0,0,0,0,0,0,0,0,0,0,0,0,0,0,0,0,0,0,0,0,0],"id":0,"left_children":[1,3,5,-1,7,9,-1,-1,11,-1,13,-1,15,17,19,-1,-1,-1,21,23,-1,-1,-1,-1,-1],"loss_changes":[1.6457614E3,1.9573407E2,2.6095697E2,0E0,9.8669304E1,3.0590698E1,0E0,0E0,1.4280174E1,0E0,1.819934E1,0E0,1.2428505E1,6.520212E1,9.5617676E-1,0E0,0E0,0E0,2.2388397E1,1.5760221E1,0E0,0E0,0E0,0E0,0E0],"parents":[2147483647,0,0,1,1,2,2,4,4,5,5,8,8,10,10,12,12,13,13,14,14,18,18,19,19],"right_children":[2,4,6,-1,8,10,-1,-1,12,-1,14,-1,16,18,20,-1,-1,-1,22,24,-1,-1,-1,-1,-1],"split_conditions":[1.645555E-2,8.545844E-1,4.862069E-1,-3.9839033E-2,7.525991E-1,1.2315271E-3,-3.8181815E-2,-3.6862746E-2,2.551724E-1,-2.8571429E-2,1.1159542E-1,-2.2222223E-2,8.380854E-3,1.1096774E-1,1.2448609E-3,3.7522398E-2,-2E-2,-3.4074076E-2,4.237993E-1,6.128884E-1,3.7748624E-2,-2.6666667E-2,3.124286E-2,3.5378747E-2,-2.4E-2],"split_indices":[14,2,3,0,5,12,0,0,3,0,14,0,14,4,15,0,0,0,5,2,0,0,0,0,0],"split_type":[0,0,0,0,0,0,0,0,0,0,0,0,0,0,0,0,0,0,0,0,0,0,0,0,0],"sum_hessian":[6.916273E2,2.8471698E2,4.0691037E2,2.475E2,3.721698E1,3.8591037E2,2.1E1,1.175E1,2.546698E1,2.5E0,3.8341037E2,1.25E0,2.421698E1,1.6205188E2,2.2135849E2,2.321698E1,1E0,5.75E0,1.5630188E2,9.155661E0,2.1220282E2,2E0,1.5430188E2,7.65566E0,1.5E0],"tree_param":{"num_deleted":"0","num_feature":"16","num_nodes":"25","size_leaf_vector":"1"}},{"base_weights":[-1.6333396E-2,-1.8486754E0,1.3958564E0,-3.907829E-2,-5.826566E-1,-3.5040487E-2,1.473048E0,3.4725886E-2,-3.6801253E-2,5.7938796E-1,1.6460041E0,-2.837646E-1,3.7620492E-2,1.0226133E0,1.7375071E0,-3.7696864E-2,3.465974E-2,3.5735045E-2,-3.565928E-2,1.509177E0,1.8257942E0,3.1326897E-2,-2.2433147E-2,2.3886919E-2,3.704335E-2],"categories":[],"categories_nodes":[],"categories_segments":[],"categories_sizes":[],"default_left":[0,0,0,0,0,0,0,0,0,0,0,0,0,0,0,0,0,0,0,0,0,0,0,0,0],"id":1,"left_children":[1,3,5,-1,7,-1,9,-1,-1,11,13,15,-1,17,19,-1,-1,-1,-1,21,23,-1,-1,-1,-1],"loss_changes":[1.6827567E3,3.657306E1,9.1823364E1,0E0,7.069035E1,0E0,5.4538147E1,0E0,0E0,6.7674774E1,1.535083E1,1.2209665E2,0E0,9.0788864E1,2.4938354E0,0E0,0E0,0E0,0E0,1.354483E1,8.358154E-1,0E0,0E0,0E0,0E0],"parents":[2147483647,0,0,1,1,2,2,4,4,6,6,9,9,10,10,11,11,13,13,14,14,19,19,20,20],"right_children":[2,4,6,-1,8,-1,10,-1,-1,12,14,16,-1,18,20,-1,-1,-1,-1,22,24,-1,-1,-1,-1],"split_conditions":[1.7436128E-2,9.692959E-3,1.2315271E-3,-3.907829E-2,7.6389196E-4,-3.5040487E-2,1.7376344E-1,3.4725886E-2,-3.6801253E-2,5.268059E-1,4.750258E-2,4.894027E-1,3.7620492E-2,7.015154E-1,1.2093236E-1,-3.7696864E-2,3.465974E-2,3.5735045E-2,-3.565928E-2,1.0737832E-1,2.7938342E-1,3.1326897E-2,-2.2433147E-2,2.3886919E-2,3.704335E-2],"split_indices":[8,9,12,0,7,0,4,0,0,14,8,1,0,2,9,0,0,0,0,9,1,0,0,0,0],"split_type":[0,0,0,0,0,0,0,0,0,0,0,0,0,0,0,0,0,0,0,0,0,0,0,0,0],"sum_hessian":[6.483147E2,2.820459E2,3.662688E2,2.5989822E2,2.2147678E1,8.247267E0,3.5802155E2,7.652966E0,1.4494713E1,5.8759995E1,2.9926154E2,3.5801193E1,2.2958801E1,3.986252E1,2.5939902E2,1.9993757E1,1.5807435E1,3.1614895E1,8.247624E0,7.737748E1,1.8202155E2,7.6127846E1,1.2496369E0,9.153293E0,1.7286824E2],"tree_param":{"num_deleted":"0","num_feature":"16","num_nodes":"25","size_leaf_vector":"1"}},{"base_weights":[-8.2409345E-2,-1.7155634E0,1.3329564E0,-1.8141677E0,3.419714E-2,-3.6976572E-2,1.5349889E0,-3.8344685E-2,-6.8009126E-1,-3.0916637E-2,1.5794036E0,3.210099E-2,-3.6408458E-2,2.4748647E-1,1.6383028E0,3.4088917E-2,-3.314325E-2,1.4695457E0,3.585683E-2,3.0838639E-2,-3.055489E-2],"categories":[],"categories_nodes":[],"categories_segments":[],"categories_sizes":[],"default_left":[0,0,0,0,0,0,0,0,0,0,0,0,0,0,0,0,0,0,0,0,0],"id":2,"left_children":[1,3,5,7,-1,-1,9,-1,11,-1,13,-1,-1,15,17,-1,-1,19,-1,-1,-1],"loss_changes":[1.4470331E3,1.0126318E2,2.184411E2,3.1771729E1,0E0,0E0,4.5670166E1,0E0,6.839172E1,0E0,2.406482E1,0E0,0E0,4.274999E1,5.151001E0,0E0,0E0,3.4520416E1,0E0,0E0,0E0],"parents":[2147483647,0,0,1,1,2,2,3,3,6,6,8,8,10,10,13,13,14,14,17,17],"right_children":[2,4,6,8,-1,-1,10,-1,12,-1,14,-1,-1,16,18,-1,-1,20,-1,-1,-1],"split_conditions":[2.1490535E-2,3.9778325E-1,4.6555543E-1,8.545844E-1,3.419714E-2,-3.6976572E-2,1.2315271E-3,-3.8344685E-2,1.7857144E-2,-3.0916637E-2,1.11827955E-1,3.210099E-2,-3.6408458E-2,4.6811193E-1,3.7548387E-1,3.4088917E-2,-3.314325E-2,2.6472068E-1,3.585683E-2,3.0838639E-2,-3.055489E-2],"split_indices":[14,12,5,2,0,0,12,0,12,0,4,0,0,5,4,0,0,13,0,0,0],"split_type":[0,0,0,0,0,0,0,0,0,0,0,0,0,0,0,0,0,0,0,0,0],"sum_hessian":[6.2402264E2,2.8962256E2,3.344001E2,2.8197595E2,7.646595E0,1.9478848E1,3.1492123E2,2.5785147E2,2.4124487E1,3.9951358E0,3.1092612E2,7.8953185E0,1.6229168E1,1.33875675E1,2.9753854E2,7.6447988E0,5.742769E0,1.4725005E2,1.502885E2,1.4425183E2,2.9982076E0],"tree_param":{"num_deleted":"0","num_feature":"16","num_nodes":"21","size_leaf_vector":"1"}},{"base_weights":[-1.2179944E-2,-1.6809431E0,1.3134129E0,-3.765147E-2,1.0212688E-1,-3.4970563E-2,1.4004719E0,3.6263388E-2,-3.5361208E-2,-3.278375E-2,1.4597465E0,9.7401136E-1,1.7495091E0,-3.6245607E-2,1.2927386E0,-2.5953406E-2,1.7803923E0,2.916546E-2,-3.3631016E-2,2.2627926E-2,3.6074817E-2],"categories":[],"categories_nodes":[],"categories_segments":[],"categories_sizes":[],"default_left":[0,0,0,0,0,0,0,0,0,0,0,0,0,0,0,0,0,0,0,0,0],"id":3,"left_children":[1,3,5,-1,7,-1,9,-1,-1,-1,11,13,15,-1,17,-1,19,-1,-1,-1,-1],"loss_changes":[1.440929E3,1.0386499E2,9.921997E1,0E0,9.998587E1,0E0,6.60921E1,0E0,0E0,0E0,4.7179016E1,1.195918E2,2.266394E1,0E0,6.1070267E1,0E0,1.210144E0,0E0,0E0,0E0,0E0],"parents":[2147483647,0,0,1,1,2,2,4,4,6,6,10,10,11,11,12,12,14,14,16,16],"right_children":[2,4,6,-1,8,-1,10,-1,-1,-1,12,14,16,-1,18,-1,20,-1,-1,-1,-1],"split_conditions":[1.645555E-2,9.692959E-3,2.8901735E-1,-3.765147E-2,9.0889E-4,-3.4970563E-2,1.2315271E-3,3.6263388E-2,-3.5361208E-2,-3.278375E-2,1.7463513E-1,3.9820167E-1,3.1754695E-2,-3.6245607E-2,1.04932055E-1,-2.5953406E-2,5.8539137E-2,2.916546E-2,-3.3631016E-2,2.2627926E-2,3.6074817E-2],"split_indices":[14,9,1,0,15,0,12,0,0,0,13,1,14,0,13,0,14,0,0,0,0],"split_type":[0,0,0,0,0,0,0,0,0,0,0,0,0,0,0,0,0,0,0,0,0],"sum_hessian":[6.493869E2,2.8736307E2,3.6202386E2,2.58119E2,2.9244059E1,9.481107E0,3.5254276E2,1.5287732E1,1.3956326E1,6.2333937E0,3.4630936E2,1.3102719E2,2.1528217E2,1.2968803E1,1.18058395E2,1.7484428E0,2.1353372E2,1.1231708E2,5.7413173E0,9.132915E0,2.0440082E2],"tree_param":{"num_deleted":"0","num_feature":"16","num_nodes":"21","size_leaf_vector":"1"}},{"base_weights":[8.274076E-2,-1.7477827E0,1.3840426E0,-3.6998905E-2,-3.3552045E-1,9.7702956E-1,1.6666381E0,3.3039458E-2,-3.4259643E-2,4.0801037E-2,1.7664725E0,-2.2876255E-2,1.6903049E0,-3.6334056E-2,7.1434563E-1,3.6447514E-2,-2.3286805E-2,1.4173646E0,1.7820374E0,-3.3971827E-2,1.1540097E0,-3.1743288E-2,1.6388606E0,-2.1332847E-2,3.620478E-2,-3.199503E-2,2.884551E-2,-2.4830146E-2,3.4742855E-2],"categories":[],"categories_nodes":[],"categories_segments":[],"categories_sizes":[],"default_left":[0,0,0,0,0,0,0,0,0,0,0,0,0,0,0,0,0,0,0,0,0,0,0,0,0,0,0,0,0],"id":4,"left_children":[1,3,5,-1,7,9,11,-1,-1,13,15,-1,17,-1,19,-1,-1,21,23,-1,25,-1,27,-1,-1,-1,-1,-1,-1],"loss_changes":[1.5794818E3,3.9133423E1,4.2944702E1,0E0,5.7060562E1,1.19086136E2,1.7052307E1,0E0,0E0,9.485261E1,1.6448792E1,0E0,3.1278687E0,0E0,6.0940895E1,0E0,0E0,4.3654198E1,1.5196289E1,0E0,4.0110756E1,0E0,1.8560226E1,0E0,0E0,0E0,0E0,0E0,0E0],"parents":[2147483647,0,0,1,1,2,2,4,4,5,5,6,6,9,9,10,10,12,12,14,14,17,17,18,18,20,20,22,22],"right_children":[2,4,6,-1,8,10,12,-1,-1,14,16,-1,18,-1,20,-1,-1,22,24,-1,26,-1,28,-1,-1,-1,-1,-1,-1],"split_conditions":[1.5228293E-2,9.692959E-3,1.7463513E-1,-3.6998905E-2,7.6389196E-4,4.9646756E-1,1.7436128E-2,3.3039458E-2,-3.4259643E-2,1.7849462E-1,3.623553E-2,-2.2876255E-2,1.1159542E-1,-3.6334056E-2,4.4894118E-2,3.6447514E-2,-2.3286805E-2,3.8236558E-1,2.8195247E-1,-3.3971827E-2,7.6855963E-1,-3.1743288E-2,2.2924006E-1,-2.1332847E-2,3.620478E-2,-3.199503E-2,2.884551E-2,-2.4830146E-2,3.4742855E-2],"split_indices":[8,9,13,0,7,1,8,0,0,4,13,0,14,0,9,0,0,4,1,0,2,0,13,0,0,0,0,0,0],"split_type":[0,0,0,0,0,0,0,0,0,0,0,0,0,0,0,0,0,0,0,0,0,0,0,0,0,0,0,0,0],"sum_hessian":[6.610574E2,2.745328E2,3.865246E2,2.5572389E2,1.8808905E1,1.6022093E2,2.2630367E2,7.617943E0,1.1190962E1,7.377738E1,8.644355E1,1.4945494E0,2.2480911E2,1.9181458E1,5.459592E1,8.5196686E1,1.2468688E0,6.0688343E1,1.6412077E2,7.9734035E0,4.662252E1,3.7434797E0,5.6944862E1,1.2478968E0,1.6287288E2,3.9868774E0,4.2635643E1,1.495121E0,5.544974E1],"tree_param":{"num_deleted":"0","num_feature":"16","num_nodes":"29","size_leaf_vector":"1"}},{"base_weights":[6.3973484E-3,-1.5274763E0,1.2626079E0,3.095833E-1,-3.6371887E-2,1.4782237E0,-3.563026E-2,-3.3529673E-2,1.0985001E0,1.5048835E0,-2.8979516E-2,-2.8700141E-2,1.4907166E0,1.146484E0,1.7380844E0,3.3849604E-2,-2.2064438E-2,-3.2362208E-2,1.3012828E0,3.5546828E-2,1.2614119E0,-3.3538785E-2,2.8759016E-2,3.21947E-2,-2.6328098E-2],"categories":[],"categories_nodes":[],"categories_segments":[],"categories_sizes":[],"default_left":[0,0,0,0,0,0,0,0,0,0,0,0,0,0,0,0,0,0,0,0,0,0,0,0,0],"id":5,"left_children":[1,3,5,7,-1,9,-1,-1,11,13,-1,-1,15,17,19,-1,-1,-1,21,-1,23,-1,-1,-1,-1],"loss_changes":[1.2397794E3,1.5549219E2,2.3480206E2,6.5271286E1,0E0,2.8001343E1,0E0,0E0,3.1529968E1,2.5452576E1,0E0,0E0,1.5528511E1,5.8757965E1,1.444397E0,0E0,0E0,0E0,5.3661835E1,0E0,1.8671522E1,0E0,0E0,0E0,0E0],"parents":[2147483647,0,0,1,1,2,2,3,3,5,5,8,8,9,9,12,12,13,13,14,14,18,18,20,20],"right_children":[2,4,6,8,-1,10,-1,-1,12,14,-1,-1,16,18,20,-1,-1,-1,22,-1,24,-1,-1,-1,-1],"split_conditions":[1.645555E-2,3.528925E-1,4.862069E-1,7.39953E-1,-3.6371887E-2,8.508418E-1,-3.563026E-2,-3.3529673E-2,2.551724E-1,1.1159542E-1,-2.8979516E-2,-2.8700141E-2,8.380854E-3,1.1956989E-1,8.292941E-1,3.3849604E-2,-2.2064438E-2,-3.2362208E-2,2.688172E-3,3.5546828E-2,2.2236559E-1,-3.3538785E-2,2.8759016E-2,3.21947E-2,-2.6328098E-2],"split_indices":[14,6,3,5,0,6,0,0,3,14,0,0,14,4,5,0,0,0,0,0,4,0,0,0,0],"split_type":[0,0,0,0,0,0,0,0,0,0,0,0,0,0,0,0,0,0,0,0,0,0,0,0,0],"sum_hessian":[6.414159E2,2.8869458E2,3.527213E2,3.9482494E1,2.4921208E2,3.298709E2,2.2850424E1,1.090487E1,2.8577623E1,3.2737518E2,2.4957209E0,3.474635E0,2.510299E1,1.3137898E2,1.959962E2,2.361377E1,1.4892192E0,6.4650364E0,1.2491394E2,1.7856184E2,1.7434362E1,4.986203E0,1.19927734E2,1.5689842E1,1.74452E0],"tree_param":{"num_deleted":"0","num_feature":"16","num_nodes":"25","size_leaf_vector":"1"}},{"base_weights":[1.05251595E-1,-1.6896443E0,1.3289485E0,-3.5793234E-2,-4.1190222E-1,1.4992326E0,-3.4830082E-2,3.2023996E-2,-3.346413E-2,1.2212243E0,3.377186E-2,-3.0566318E-2,1.3215626E0,1.3720597E0,-2.804835E-2,2.8370522E-2,-2.7254019E-2],"categories":[],"categories_nodes":[],"categories_segments":[],"categories_sizes":[],"default_left":[0,0,0,0,0,0,0,0,0,0,0,0,0,0,0,0,0],"id":6,"left_children":[1,3,5,-1,7,9,-1,-1,-1,11,-1,-1,13,15,-1,-1,-1],"loss_changes":[1.4651329E3,3.3824463E1,2.0996985E2,0E0,5.582711E1,1.7747314E1,0E0,0E0,0E0,4.507779E1,0E0,0E0,2.2710297E1,2.0850525E1,0E0,0E0,0E0],"parents":[2147483647,0,0,1,1,2,2,4,4,5,5,9,9,12,12,13,13],"right_children":[2,4,6,-1,8,10,-1,-1,-1,12,-1,-1,14,16,-1,-1,-1],"split_conditions":[1.5228293E-2,9.692959E-3,4.862069E-1,-3.5793234E-2,7.6389196E-4,1.1159542E-1,-3.4830082E-2,3.2023996E-2,-3.346413E-2,1.1096774E-1,3.377186E-2,-3.0566318E-2,8.505982E-1,1.0399746E-1,-2.804835E-2,2.8370522E-2,-2.7254019E-2],"split_indices":[8,9,3,0,7,14,0,0,0,4,0,0,5,14,0,0,0],"split_type":[0,0,0,0,0,0,0,0,0,0,0,0,0,0,0,0,0],"sum_hessian":[6.650362E2,2.6944235E2,3.955938E2,2.4951082E2,1.9931532E1,3.752922E2,2.0301607E1,7.5738406E0,1.2357692E1,1.5507253E2,2.202197E2,4.95872E0,1.501138E2,1.4786893E2,2.2448833E0,1.458717E2,1.9972153E0],"tree_param":{"num_deleted":"0","num_feature":"16","num_nodes":"17","size_leaf_vector":"1"}},{"base_weights":[1.5268326E-1,-1.6634619E0,1.3129276E0,7.838993E-2,-3.525313E-2,1.4724045E0,-3.4372058E-2,2.968336E-2,-3.0964043E-2,1.2152578E0,1.660655E0,-3.0760953E-2,1.3180722E0,3.361968E-2,-2.2618525E-2,2.548538E-1,1.4049239E0,-3.4186915E-2,3.29261E-2,2.8777031E-2,-2.4701217E-2],"categories":[],"categories_nodes":[],"categories_segments":[],"categories_sizes":[],"default_left":[0,0,0,0,0,0,0,0,0,0,0,0,0,0,0,0,0,0,0,0,0],"id":7,"left_children":[1,3,5,7,-1,9,-1,-1,-1,11,13,-1,15,-1,-1,17,19,-1,-1,-1,-1],"loss_changes":[1.4528137E3,4.6582092E1,2.0588531E2,3.76038E1,0E0,1.7351929E1,0E0,0E0,0E0,5.0957947E1,1.4856506E1,0E0,1.5078613E1,0E0,0E0,4.065612E1,1.5599457E1,0E0,0E0,0E0,0E0],"parents":[2147483647,0,0,1,1,2,2,3,3,5,5,9,9,10,10,12,12,15,15,16,16],"right_children":[2,4,6,8,-1,10,-1,-1,-1,12,14,-1,16,-1,-1,18,20,-1,-1,-1,-1],"split_conditions":[1.55738145E-2,2.529141E-1,4.862069E-1,7.6389196E-4,-3.525313E-2,1.1159542E-1,-3.4372058E-2,2.968336E-2,-3.0964043E-2,1.1096774E-1,8.508418E-1,-3.0760953E-2,2.551724E-1,3.361968E-2,-2.2618525E-2,2.3225807E-1,1.373363E-1,-3.4186915E-2,3.29261E-2,2.8777031E-2,-2.4701217E-2],"split_indices":[8,6,3,7,0,14,0,0,0,4,6,0,3,0,0,0,9,0,0,0,0],"split_type":[0,0,0,0,0,0,0,0,0,0,0,0,0,0,0,0,0,0,0,0,0],"sum_hessian":[6.8742487E2,2.6780017E2,4.1962473E2,1.444021E1,2.5335995E2,3.9914175E2,2.048297E1,7.7928333E0,6.647377E0,1.718515E2,2.2729025E2,5.683784E0,1.6616771E2,2.26042E2,1.2482486E0,1.28458805E1,1.5332184E2,5.231928E0,7.613953E0,1.5182562E2,1.496205E0],"tree_param":{"num_deleted":"0","num_feature":"16","num_nodes":"21","size_leaf_vector":"1"}},{"base_weights":[6.3557245E-2,-1.6390963E0,1.244109E0,-8.219102E-3,-3.4711618E-2,1.4210082E0,-3.3887837E-2,2.9249284E-2,-3.099028E-2,1.446877E0,-2.9780399E-2,-2.6331378E-2,1.4675381E0,-2.650229E-2,1.4865885E0,2.3951285E-2,3.2711167E-2],"categories":[],"categories_nodes":[],"categories_segments":[],"categories_sizes":[],"default_left":[0,0,0,0,0,0,0,0,0,0,0,0,0,0,0,0,0],"id":8,"left_children":[1,3,5,7,-1,9,-1,-1,-1,11,-1,-1,13,-1,15,-1,-1],"loss_changes":[1.3287074E3,4.2578247E1,2.0530975E2,3.8815186E1,0E0,2.9910889E1,0E0,0E0,0E0,2.2827454E1,0E0,0E0,2.1320557E1,0E0,1.3616089E1,0E0,0E0],"parents":[2147483647,0,0,1,1,2,2,3,3,5,5,9,9,12,12,14,14],"right_children":[2,4,6,8,-1,10,-1,-1,-1,12,-1,-1,14,-1,16,-1,-1],"split_conditions":[1.5228293E-2,2.529141E-1,4.862069E-1,7.6389196E-4,-3.4711618E-2,8.508418E-1,-3.3887837E-2,2.9249284E-2,-3.099028E-2,1.2315271E-3,-2.9780399E-2,-2.6331378E-2,1.3891625E-1,-2.650229E-2,1.7111222E-1,2.3951285E-2,3.2711167E-2],"split_indices":[8,6,3,7,0,6,0,0,0,12,0,0,3,0,13,0,0],"split_type":[0,0,0,0,0,0,0,0,0,0,0,0,0,0,0,0,0],"sum_hessian":[6.590108E2,2.6967828E2,3.8933252E2,1.512395E1,2.5455432E2,3.6771246E2,2.1620052E1,7.7654276E0,7.358523E0,3.6497083E2,2.741632E0,2.243014E0,3.627278E2,1.9931076E0,3.607347E2,1.2576683E2,2.3496788E2],"tree_param":{"num_deleted":"0","num_feature":"16","num_nodes":"17","size_leaf_vector":"1"}},{"base_weights":[4.1586682E-2,-1.615476E0,1.244992E0,1.8010093E-2,-3.422268E-2,1.4125718E0,-3.3264242E-2,2.8831273E-2,-3.0454092E-2,-2.6809141E-2,1.4361775E0,1.4535491E0,-2.5435273E-2,-2.4906697E-2,1.4709038E0,2.2829706E-2,3.1700335E-2],"categories":[],"categories_nodes":[],"categories_segments":[],"categories_sizes":[],"default_left":[0,0,0,0,0,0,0,0,0,0,0,0,0,0,0,0,0],"id":9,"left_children":[1,3,5,7,-1,9,-1,-1,-1,-1,11,13,-1,-1,15,-1,-1],"loss_changes":[1.2704596E3,4.191394E1,1.8220972E2,3.68884E1,0E0,2.463733E1,0E0,0E0,0E0,0E0,1.8171814E1,1.8002747E1,0E0,0E0,1.1103394E1,0E0,0E0],"parents":[2147483647,0,0,1,1,2,2,3,3,5,5,10,10,11,11,14,14],"right_children":[2,4,6,8,-1,10,-1,-1,-1,-1,12,14,-1,-1,16,-1,-1],"split_conditions":[1.55738145E-2,2.529141E-1,4.862069E-1,7.6389196E-4,-3.422268E-2,1.2315271E-3,-3.3264242E-2,2.8831273E-2,-3.0454092E-2,-2.6809141E-2,8.576054E-1,2.6345572E-1,-2.5435273E-2,-2.4906697E-2,6.0021818E-2,2.2829706E-2,3.1700335E-2],"split_indices":[8,6,3,7,0,12,0,0,0,0,6,5,0,0,9,0,0],"split_type":[0,0,0,0,0,0,0,0,0,0,0,0,0,0,0,0,0],"sum_hessian":[6.350949E2,2.6704178E2,3.680531E2,1.4817939E1,2.5222385E2,3.484865E2,1.9566595E1,7.735254E0,7.082685E0,2.488415E0,3.4599808E2,3.442529E2,1.7451756E0,1.7474134E0,3.425055E2,9.095168E1,2.5155382E2],"tree_param":{"num_deleted":"0","num_feature":"16","num_nodes":"17","size_leaf_vector":"1"}},{"base_weights":[4.4741157E-2,-1.5936651E0,1.2336135E0,1.3738638E-1,-3.372796E-2,1.3847934E0,-3.2673467E-2,3.034647E-2,-2.9532325E-2,1.403705E0,-2.6393387E-2,1.1292108E0,3.1733193E-2,-3.2214027E-2,1.2679814E0,-3.365643E-2,2.7578996E-2],"categories":[],"categories_nodes":[],"categories_segments":[],"categories_sizes":[],"default_left":[0,0,0,0,0,0,0,0,0,0,0,0,0,0,0,0,0],"id":10,"left_children":[1,3,5,7,-1,9,-1,-1,-1,11,-1,13,-1,-1,15,-1,-1],"loss_changes":[1.2610659E3,4.393463E1,1.648825E2,3.5131165E1,0E0,2.0106628E1,0E0,0E0,0E0,1.6031982E1,0E0,5.7331528E1,0E0,0E0,4.7823578E1,0E0,0E0],"parents":[2147483647,0,0,1,1,2,2,3,3,5,5,9,9,11,11,14,14],"right_children":[2,4,6,8,-1,10,-1,-1,-1,12,-1,14,-1,-1,16,-1,-1],"split_conditions":[1.5228293E-2,2.529141E-1,4.862069E-1,3.4251967E-1,-3.372796E-2,8.576054E-1,-3.2673467E-2,3.034647E-2,-2.9532325E-2,1.2093236E-1,-2.6393387E-2,1.20430104E-1,3.1733193E-2,-3.2214027E-2,2.5221676E-1,-3.365643E-2,2.7578996E-2],"split_indices":[8,6,3,10,0,6,0,0,0,9,0,4,0,0,3,0,0],"split_type":[0,0,0,0,0,0,0,0,0,0,0,0,0,0,0,0,0],"sum_hessian":[6.45403E2,2.7124918E2,3.7415384E2,1.3767571E1,2.574816E2,3.559055E2,1.8248354E1,7.45425E0,6.313321E0,3.5391165E2,1.9938465E0,1.4441386E2,2.0949779E2,6.4503355E0,1.3796352E2,4.486863E0,1.3347665E2],"tree_param":{"num_deleted":"0","num_feature":"16","num_nodes":"17","size_leaf_vector":"1"}},{"base_weights":[1.3628127E-1,-1.5718555E0,1.2485385E0,4.251264E-2,-3.326893E-2,1.4066576E0,-3.245079E-2,2.8013786E-2,-2.9543564E-2,1.4237994E0,-2.6037958E-2,1.1887264E0,3.190866E-2,-3.081228E-2,1.2975047E0,2.6681755E-2,-2.6427006E-2],"categories":[],"categories_nodes":[],"categories_segments":[],"categories_sizes":[],"default_left":[0,0,0,0,0,0,0,0,0,0,0,0,0,0,0,0,0],"id":11,"left_children":[1,3,5,7,-1,9,-1,-1,-1,11,-1,13,-1,-1,15,-1,-1],"loss_changes":[1.2975006E3,3.989856E1,1.9001947E2,3.393049E1,0E0,2.0076904E1,0E0,0E0,0E0,1.3858765E1,0E0,5.2090057E1,0E0,0E0,1.7359406E1,0E0,0E0],"parents":[2147483647,0,0,1,1,2,2,3,3,5,5,9,9,11,11,14,14],"right_children":[2,4,6,8,-1,10,-1,-1,-1,12,-1,14,-1,-1,16,-1,-1],"split_conditions":[1.5228293E-2,2.529141E-1,4.862069E-1,3.4251967E-1,-3.326893E-2,8.576054E-1,-3.245079E-2,2.8013786E-2,-2.9543564E-2,1.1159542E-1,-2.6037958E-2,1.1096774E-1,3.190866E-2,-3.081228E-2,1.0399746E-1,2.6681755E-2,-2.6427006E-2],"split_indices":[8,6,3,10,0,6,0,0,0,14,0,4,0,0,14,0,0],"split_type":[0,0,0,0,0,0,0,0,0,0,0,0,0,0,0,0,0],"sum_hessian":[6.8090247E2,2.6835934E2,4.1254312E2,1.443667E1,2.5392268E2,3.914925E2,2.1050634E1,7.6647987E0,6.771871E0,3.8950174E2,1.9907333E0,1.6771791E2,2.2178384E2,5.9237175E0,1.6179419E2,1.6004903E2,1.7451575E0],"tree_param":{"num_deleted":"0","num_feature":"16","num_nodes":"17","size_leaf_vector":"1"}},{"base_weights":[-9.574436E-2,-1.5514114E0,1.0818741E0,-1.0882106E-2,-3.283205E-2,1.263126E0,-3.1986576E-2,-2.9438231E-2,2.7639426E-2,8.103303E-1,1.5007609E0,-8.581617E-1,1.2895819E0,-2.5263447E-2,1.5310279E0,-3.85529E-2,2.972833E-2,-3.213678E-2,1.5071707E0,8.195186E-1,1.561614E0,1.7732227E-2,3.1508036E-2,-2.7487658E-2,2.9970545E-2,3.163432E-2,2.0370854E-2],"categories":[],"categories_nodes":[],"categories_segments":[],"categories_sizes":[],"default_left":[0,0,0,0,0,0,0,0,0,0,0,0,0,0,0,0,0,0,0,0,0,0,0,0,0,0,0],"id":12,"left_children":[1,3,5,7,-1,9,-1,-1,-1,11,13,15,17,-1,19,-1,-1,-1,21,23,25,-1,-1,-1,-1,-1,-1],"loss_changes":[1.0284529E3,3.7256836E1,1.632172E2,3.4277313E1,0E0,3.227481E1,0E0,0E0,0E0,8.850786E1,1.89122E1,6.5528336E1,5.6187866E1,0E0,3.0989075E0,0E0,0E0,0E0,1.9849243E0,1.7548063E1,4.8284912E-1,0E0,0E0,0E0,0E0,0E0,0E0],"parents":[2147483647,0,0,1,1,2,2,3,3,5,5,9,9,10,10,11,11,12,12,14,14,18,18,19,19,20,20],"right_children":[2,4,6,8,-1,10,-1,-1,-1,12,14,16,18,-1,20,-1,-1,-1,22,24,26,-1,-1,-1,-1,-1,-1],"split_conditions":[1.5228293E-2,2.529141E-1,4.862069E-1,2.541806E-1,-3.283205E-2,1.8067439E-1,-3.1986576E-2,-2.9438231E-2,2.7639426E-2,4.044335E-1,1.3891625E-1,5.7675016E-1,1.372043E-1,-2.5263447E-2,3.1756446E-2,-3.85529E-2,2.972833E-2,-3.213678E-2,4.0141296E-1,3.2662305E-1,1.6722407E-2,1.7732227E-2,3.1508036E-2,-2.7487658E-2,2.9970545E-2,3.163432E-2,2.0370854E-2],"split_indices":[8,6,3,11,0,13,0,0,0,3,3,1,4,0,8,0,0,0,1,13,11,0,0,0,0,0,0],"split_type":[0,0,0,0,0,0,0,0,0,0,0,0,0,0,0,0,0,0,0,0,0,0,0,0,0,0,0],"sum_hessian":[5.979746E2,2.672753E2,3.3069934E2,1.4844311E1,2.52431E2,3.102547E2,2.0444622E1,7.2171464E0,7.6271644E0,1.083024E2,2.0195232E2,2.3990381E1,8.431201E1,1.7463298E0,2.0020598E2,1.6597317E1,7.3930645E0,5.4451036E0,7.886691E1,9.397221E0,1.9080876E2,9.198758E0,6.966815E1,1.9789758E0,7.4182444E0,1.8215378E2,8.654985E0],"tree_param":{"num_deleted":"0","num_feature":"16","num_nodes":"27","size_leaf_vector":"1"}},{"base_weights":[-2.5069494E-2,-1.5304943E0,1.1006805E0,-3.3763777E-2,-3.2411717E-2,1.2673846E0,-3.1610545E-2,2.7277675E-2,-2.9143209E-2,9.231905E-1,1.4896649E0,-3.166383E-2,1.047085E0,1.5108484E0,-2.1098385E-2,1.1158057E0,-3.0683504E-2,1.1534113E0,1.5554025E0,-2.8270373E-2,2.357621E-2,-3.3306614E-2,3.1749777E-2,3.1605132E-2,1.9181771E-2],"categories":[],"categories_nodes":[],"categories_segments":[],"categories_sizes":[],"default_left":[0,0,0,0,0,0,0,0,0,0,0,0,0,0,0,0,0,0,0,0,0,0,0,0,0],"id":13,"left_children":[1,3,5,7,-1,9,-1,-1,-1,11,13,-1,15,17,-1,19,-1,21,23,-1,-1,-1,-1,-1,-1],"loss_changes":[1.0447576E3,3.5510376E1,1.596614E2,3.3809452E1,0E0,2.4073975E1,0E0,0E0,0E0,4.3005516E1,1.2400421E1,0E0,2.4325653E1,1.3789062E0,0E0,2.1547363E1,0E0,3.439673E1,1.0674744E0,0E0,0E0,0E0,0E0,0E0,0E0],"parents":[2147483647,0,0,1,1,2,2,3,3,5,5,9,9,10,10,12,12,13,13,15,15,17,17,18,18],"right_children":[2,4,6,8,-1,10,-1,-1,-1,12,14,-1,16,18,-1,20,-1,22,24,-1,-1,-1,-1,-1,-1],"split_conditions":[1.5228293E-2,2.529141E-1,4.862069E-1,3.4251967E-1,-3.2411717E-2,1.1159542E-1,-3.1610545E-2,2.7277675E-2,-2.9143209E-2,5.6795174E-1,8.508418E-1,-3.166383E-2,8.505982E-1,5.762456E-2,-2.1098385E-2,2.1168514E-1,-3.0683504E-2,4.9454078E-1,5.0931054E-1,-2.8270373E-2,2.357621E-2,-3.3306614E-2,3.1749777E-2,3.1605132E-2,1.9181771E-2],"split_indices":[8,6,3,10,0,14,0,0,0,5,6,0,5,13,0,6,0,1,13,0,0,0,0,0,0],"split_type":[0,0,0,0,0,0,0,0,0,0,0,0,0,0,0,0,0,0,0,0,0,0,0,0,0],"sum_hessian":[6.144797E2,2.6275174E2,3.5172797E2,1.4995751E1,2.4775598E2,3.316358E2,2.0092155E1,7.587409E0,7.4083424E0,1.3215352E2,1.9948228E2,5.6700525E0,1.2648347E2,1.9823822E2,1.244067E0,1.2375643E2,2.727031E0,2.49515E1,1.7328673E2,2.4868448E0,1.21269585E2,2.951174E0,2.2000326E1,1.6476915E2,8.517578E0],"tree_param":{"num_deleted":"0","num_feature":"16","num_nodes":"25","size_leaf_vector":"1"}},{"base_weights":[8.0253795E-2,-1.5110661E0,1.1530377E0,-3.2015245E-2,-3.073297E-1,1.3119406E0,-3.12755E-2,2.8910803E-2,-2.9687557E-2,-2.5782602E-2,1.3313901E0,1.0505531E0,1.4903873E0,1.3126817E0,-3.57847E-2,6.1075574E-1,3.055537E-2,1.546437E-2,3.3056386E-2,-2.8455237E-2,2.7248401E-2],"categories":[],"categories_nodes":[],"categories_segments":[],"categories_sizes":[],"default_left":[0,0,0,0,0,0,0,0,0,0,0,0,0,0,0,0,0,0,0,0,0],"id":14,"left_children":[1,3,5,-1,7,9,-1,-1,-1,-1,11,13,15,17,-1,19,-1,-1,-1,-1,-1],"loss_changes":[1.1095656E3,2.776886E1,1.6963605E2,0E0,4.2149426E1,2.0296997E1,0E0,0E0,0E0,0E0,1.4734497E1,1.0310249E2,6.65271E0,2.156485E1,0E0,1.8859419E1,0E0,0E0,0E0,0E0,0E0],"parents":[2147483647,0,0,1,1,2,2,4,4,5,5,10,10,11,11,12,12,13,13,15,15],"right_children":[2,4,6,-1,8,10,-1,-1,-1,-1,12,14,16,18,-1,20,-1,-1,-1,-1,-1],"split_conditions":[1.5228293E-2,9.692959E-3,4.862069E-1,-3.2015245E-2,7.6389196E-4,1.2315271E-3,-3.12755E-2,2.8910803E-2,-2.9687557E-2,-2.5782602E-2,1.8067439E-1,4.187192E-2,3.102604E-2,5.2793837E-1,-3.57847E-2,3.7619528E-1,3.055537E-2,1.546437E-2,3.3056386E-2,-2.8455237E-2,2.7248401E-2],"split_indices":[8,9,3,0,7,12,0,0,0,0,13,12,8,1,0,13,0,0,0,0,0],"split_type":[0,0,0,0,0,0,0,0,0,0,0,0,0,0,0,0,0,0,0,0,0],"sum_hessian":[6.479343E2,2.607463E2,3.8718805E2,2.4235727E2,1.8389036E1,3.662818E2,2.0906258E1,7.295866E0,1.109317E1,2.2340395E0,3.6404776E2,1.3435088E2,2.2969687E2,1.2348982E2,1.0861061E1,1.0070179E1,2.1962668E2,4.9018703E1,7.447112E1,2.476785E0,7.593394E0],"tree_param":{"num_deleted":"0","num_feature":"16","num_nodes":"21","size_leaf_vector":"1"}},{"base_weights":[2.2484014E-2,-1.4931833E0,1.1025934E0,6.848466E-2,-3.163405E-2,1.2770938E0,-3.0941933E-2,2.6601726E-2,-2.792719E-2,-2.5809554E-2,1.2977905E0,1.0106009E0,1.4818748E0,-3.5681885E-2,1.1920464E0,1.3221363E0,1.5556402E0,1.2034414E-2,3.1437192E-2,-2.5304964E-2,2.7898995E-2,2.0204477E-2,3.165952E-2],"categories":[],"categories_nodes":[],"categories_segments":[],"categories_sizes":[],"default_left":[0,0,0,0,0,0,0,0,0,0,0,0,0,0,0,0,0,0,0,0,0,0,0],"id":15,"left_children":[1,3,5,7,-1,9,-1,-1,-1,-1,11,13,15,-1,17,19,21,-1,-1,-1,-1,-1,-1],"loss_changes":[1.019891E3,3.5944336E1,1.701641E2,2.9327366E1,0E0,1.9839478E1,0E0,0E0,0E0,0E0,1.6455505E1,7.0984344E1,3.564453E-1,0E0,2.7778625E1,1.5208771E1,4.052124E-1,0E0,0E0,0E0,0E0,0E0,0E0],"parents":[2147483647,0,0,1,1,2,2,3,3,5,5,10,10,11,11,12,12,14,14,15,15,16,16],"right_children":[2,4,6,8,-1,10,-1,-1,-1,-1,12,14,16,-1,18,20,22,-1,-1,-1,-1,-1,-1],"split_conditions":[1.5228293E-2,2.529141E-1,4.862069E-1,7.6389196E-4,-3.163405E-2,1.2315271E-3,-3.0941933E-2,2.6601726E-2,-2.792719E-2,-2.5809554E-2,1.2093236E-1,2.6995075E-1,2.67051E-1,-3.5681885E-2,4.92614E-1,6.4962333E-1,2.8633004E-2,1.2034414E-2,3.1437192E-2,-2.5304964E-2,2.7898995E-2,2.0204477E-2,3.165952E-2],"split_indices":[8,6,3,7,0,12,0,0,0,0,9,3,9,0,1,5,12,0,0,0,0,0,0],"split_type":[0,0,0,0,0,0,0,0,0,0,0,0,0,0,0,0,0,0,0,0,0,0,0],"sum_hessian":[6.2098584E2,2.5823468E2,3.6275116E2,1.3864363E1,2.4437032E2,3.408236E2,2.1927568E1,7.498366E0,6.3659964E0,2.2347617E0,3.3858884E2,1.3479115E2,2.0379768E2,7.679274E0,1.27111885E2,7.035911E1,1.3343857E2,5.0776566E1,7.633531E1,1.4775834E0,6.888152E1,8.180166E0,1.2525841E2],"tree_param":{"num_deleted":"0","num_feature":"16","num_nodes":"23","size_leaf_vector":"1"}},{"base_weights":[3.5875537E-2,-1.4776636E0,1.1154336E0,-5.250851E-2,-3.1269524E-2,1.2683169E0,-3.0367708E-2,2.6273675E-2,-2.8147895E-2,8.709903E-1,1.4549559E0,1.0881602E0,-3.4708496E-2,7.0057225E-1,1.4835072E0,6.2400743E-2,1.4129082E0,-2.7550718E-2,2.8581537E-2,1.1215094E0,1.5083796E0,-3.6705416E-2,2.253214E-2,2.9623816E-2,-2.6651613E-2,-3.0438012E-2,3.2528453E-2,3.0469198E-2,2.0310966E-2],"categories":[],"categories_nodes":[],"categories_segments":[],"categories_sizes":[],"default_left":[0,0,0,0,0,0,0,0,0,0,0,0,0,0,0,0,0,0,0,0,0,0,0,0,0,0,0,0,0],"id":16,"left_children":[1,3,5,7,-1,9,-1,-1,-1,11,13,15,-1,17,19,21,23,-1,-1,25,27,-1,-1,-1,-1,-1,-1,-1,-1],"loss_changes":[1.0298632E3,3.2009888E1,1.500542E2,3.1350603E1,0E0,2.4556396E1,0E0,0E0,0E0,6.629659E1,4.03183E0,3.5105675E1,0E0,1.783544E1,3.4283447E-1,5.548678E1,1.7008759E1,0E0,0E0,2.7068811E1,2.6855469E-3,0E0,0E0,0E0,0E0,0E0,0E0,0E0,0E0],"parents":[2147483647,0,0,1,1,2,2,3,3,5,5,9,9,10,10,11,11,13,13,14,14,15,15,16,16,19,19,20,20],"right_children":[2,4,6,8,-1,10,-1,-1,-1,12,14,16,-1,18,20,22,24,-1,-1,26,28,-1,-1,-1,-1,-1,-1,-1,-1],"split_conditions":[1.5228293E-2,2.529141E-1,4.862069E-1,7.6389196E-4,-3.1269524E-2,1.7463513E-1,-3.0367708E-2,2.6273675E-2,-2.8147895E-2,3.8709678E-2,2.6629614E-2,4.2463055E-1,-3.4708496E-2,3.7619528E-1,5.8539137E-2,1.2118691E-1,2.2028147E-1,-2.7550718E-2,2.8581537E-2,1.4301075E-1,1.9569893E-1,-3.6705416E-2,2.253214E-2,2.9623816E-2,-2.6651613E-2,-3.0438012E-2,3.2528453E-2,3.0469198E-2,2.0310966E-2],"split_indices":[8,6,3,7,0,13,0,0,0,0,8,3,0,13,14,8,14,0,0,0,0,0,0,0,0,0,0,0,0],"split_type":[0,0,0,0,0,0,0,0,0,0,0,0,0,0,0,0,0,0,0,0,0,0,0,0,0,0,0,0,0],"sum_hessian":[6.2828046E2,2.6141214E2,3.668683E2,1.4937965E1,2.4647418E2,3.4723126E2,1.9637024E1,7.453091E0,7.4848742E0,1.1278836E2,2.3444292E2,1.046512E2,8.137165E0,9.480689E0,2.2496222E2,2.5451488E1,7.919971E1,2.2296252E0,7.251064E0,1.7426382E1,2.0753584E2,8.884421E0,1.6567066E1,7.772707E1,1.472637E0,2.4717362E0,1.4954647E1,1.9934477E2,8.191068E0],"tree_param":{"num_deleted":"0","num_feature":"16","num_nodes":"29","size_leaf_vector":"1"}},{"base_weights":[6.2693514E-2,-1.4606789E0,1.1278664E0,-3.092298E-2,-3.2433912E-1,-2.7563704E-2,1.174624E0,2.7955983E-2,-2.87857E-2,-2.7723E-2,1.2122047E0,9.181663E-1,1.4109219E0,1.123276E0,-3.466847E-2,1.4329394E0,-2.699555E-2,-2.9024035E-2,2.5380751E-2,1.3011717E-2,2.934022E-2],"categories":[],"categories_nodes":[],"categories_segments":[],"categories_sizes":[],"default_left":[0,0,0,0,0,0,0,0,0,0,0,0,0,0,0,0,0,0,0,0,0],"id":17,"left_children":[1,3,5,-1,7,-1,9,-1,-1,-1,11,13,15,17,-1,19,-1,-1,-1,-1,-1],"loss_changes":[1.0257653E3,2.4764587E1,4.5207733E1,0E0,3.9383675E1,0E0,3.6875458E1,0E0,0E0,0E0,1.9795776E1,8.267394E1,1.4913239E1,5.37704E1,0E0,4.705414E0,0E0,0E0,0E0,0E0,0E0],"parents":[2147483647,0,0,1,1,2,2,4,4,6,6,10,10,11,11,12,12,13,13,15,15],"right_children":[2,4,6,-1,8,-1,10,-1,-1,-1,12,14,16,18,-1,20,-1,-1,-1,-1,-1],"split_conditions":[1.5228293E-2,9.692959E-3,1.945666E-1,-3.092298E-2,7.6389196E-4,-2.7563704E-2,1.2315271E-3,2.7955983E-2,-2.87857E-2,-2.7723E-2,1.7463513E-1,6.311576E-2,5.0931054E-1,1.0924731E-1,-3.466847E-2,3.102604E-2,-2.699555E-2,-2.9024035E-2,2.5380751E-2,1.3011717E-2,2.934022E-2],"split_indices":[8,9,5,0,7,0,12,0,0,0,13,12,13,4,0,8,0,0,0,0,0],"split_type":[0,0,0,0,0,0,0,0,0,0,0,0,0,0,0,0,0,0,0,0,0],"sum_hessian":[6.3013715E2,2.5914532E2,3.709918E2,2.4068176E2,1.8463581E1,6.2735863E0,3.647182E2,7.1563053E0,1.1307276E1,4.7560115E0,3.599622E2,1.4743126E2,2.1253093E2,1.3738075E2,1.00505E1,2.1132649E2,1.2044393E0,6.8815265E0,1.3049922E2,9.657864E0,2.0166862E2],"tree_param":{"num_deleted":"0","num_feature":"16","num_nodes":"21","size_leaf_vector":"1"}},{"base_weights":[-1.6899262E-2,-3.0604444E-2,1.056413E0,1.2177036E0,-2.9969327E-2,-2.5413755E-2,1.240653E0,1.2579309E0,-2.4803333E-2,1.0367895E0,2.8921537E-2,-2.917174E-2,2.293838E-2],"categories":[],"categories_nodes":[],"categories_segments":[],"categories_sizes":[],"default_left":[0,0,0,0,0,0,0,0,0,0,0,0,0],"id":18,"left_children":[1,-1,3,5,-1,-1,7,9,-1,11,-1,-1,-1],"loss_changes":[9.5555884E2,0E0,1.436608E2,2.0097076E1,0E0,0E0,1.5355652E1,1.1819977E1,0E0,4.308499E1,0E0,0E0,0E0],"parents":[2147483647,0,0,2,2,3,3,6,6,7,7,9,9],"right_children":[2,-1,4,6,-1,-1,8,10,-1,12,-1,-1,-1],"split_conditions":[1.5228293E-2,-3.0604444E-2,4.862069E-1,1.2315271E-3,-2.9969327E-2,-2.5413755E-2,8.576054E-1,1.1159542E-1,-2.4803333E-2,1.1096774E-1,2.8921537E-2,-2.917174E-2,2.293838E-2],"split_indices":[8,0,3,12,0,0,6,14,0,4,0,0,0],"split_type":[0,0,0,0,0,0,0,0,0,0,0,0,0],"sum_hessian":[5.8630585E2,2.4310823E2,3.431976E2,3.233103E2,1.9887314E1,2.457686E0,3.208526E2,3.19123E2,1.729608E0,1.4969109E2,1.6943192E2,5.809597E0,1.4388148E2],"tree_param":{"num_deleted":"0","num_feature":"16","num_nodes":"13","size_leaf_vector":"1"}},{"base_weights":[4.2804778E-2,-3.0276043E-2,1.0957731E0,1.2319134E0,-2.9382166E-2,-2.4962995E-2,1.253409E0,-2.6337521E-2,1.2723795E0,1.0773088E0,1.4294436E0,-2.8054498E-2,2.3325605E-2,2.9406687E-2,2.2068528E-2],"categories":[],"categories_nodes":[],"categories_segments":[],"categories_sizes":[],"default_left":[0,0,0,0,0,0,0,0,0,0,0,0,0,0,0],"id":19,"left_children":[1,-1,3,5,-1,-1,7,-1,9,11,13,-1,-1,-1,-1],"loss_changes":[9.9043555E2,0E0,1.2766373E2,1.9839172E1,0E0,0E0,1.827124E1,0E0,8.827148E0,3.583339E1,8.3566284E-1,0E0,0E0,0E0,0E0],"parents":[2147483647,0,0,2,2,3,3,6,6,8,8,9,9,10,10],"right_children":[2,-1,4,6,-1,-1,8,-1,10,12,14,-1,-1,-1,-1],"split_conditions":[1.5228293E-2,-3.0276043E-2,4.862069E-1,1.2315271E-3,-2.9382166E-2,-2.4962995E-2,1.3891625E-1,-2.6337521E-2,1.1159542E-1,1.1096774E-1,8.1225073E-1,-2.8054498E-2,2.3325605E-2,2.9406687E-2,2.2068528E-2],"split_indices":[8,0,3,12,0,0,3,0,14,4,5,0,0,0,0],"split_type":[0,0,0,0,0,0,0,0,0,0,0,0,0,0,0],"sum_hessian":[6.022592E2,2.4283609E2,3.5942313E2,3.4180054E2,1.7622597E1,2.4466863E0,3.3935385E2,1.9850603E0,3.3736877E2,1.5398325E2,1.8338553E2,4.8214655E0,1.4916179E2,1.5982892E2,2.3556614E1],"tree_param":{"num_deleted":"0","num_feature":"16","num_nodes":"15","size_leaf_vector":"1"}},{"base_weights":[1.2538868E-1,-1.4084771E0,1.1135143E0,-2.9959198E-2,-2.6123008E-1,1.2495533E0,-2.9199606E-2,2.8332576E-2,-2.777586E-2,1.013116E0,1.4166822E0,-3.347605E-2,1.1304268E0,9.305261E-1,2.9053628E-2,-2.7721342E-2,1.2109387E0,-3.1547606E-2,2.888069E-2,2.4904426E-2,-2.5473949E-2],"categories":[],"categories_nodes":[],"categories_segments":[],"categories_sizes":[],"default_left":[0,0,0,0,0,0,0,0,0,0,0,0,0,0,0,0,0,0,0,0,0],"id":20,"left_children":[1,3,5,-1,7,9,-1,-1,-1,11,13,-1,15,17,-1,-1,19,-1,-1,-1,-1],"loss_changes":[9.6201404E2,2.5142181E1,1.3694827E2,0E0,3.830558E1,1.3071899E1,0E0,0E0,0E0,5.092137E1,2.3685303E0,0E0,3.1996078E1,2.4734798E1,0E0,0E0,1.3982468E1,0E0,0E0,0E0,0E0],"parents":[2147483647,0,0,1,1,2,2,4,4,5,5,9,9,10,10,12,12,13,13,16,16],"right_children":[2,4,6,-1,8,10,-1,-1,-1,12,14,-1,16,18,-1,-1,20,-1,-1,-1,-1],"split_conditions":[1.5228293E-2,9.692959E-3,4.862069E-1,-2.9959198E-2,7.6389196E-4,1.2093236E-1,-2.9199606E-2,2.8332576E-2,-2.777586E-2,2.551724E-1,4.8817314E-2,-3.347605E-2,1.1096774E-1,5.626204E-1,2.9053628E-2,-2.7721342E-2,1.0737832E-1,-3.1547606E-2,2.888069E-2,2.4904426E-2,-2.5473949E-2],"split_indices":[8,9,3,0,7,9,0,0,0,3,13,0,4,1,0,0,9,0,0,0,0],"split_type":[0,0,0,0,0,0,0,0,0,0,0,0,0,0,0,0,0,0,0,0,0],"sum_hessian":[6.3268475E2,2.4772157E2,3.8496317E2,2.2951425E2,1.8207327E1,3.6612375E2,1.8839422E1,7.2149005E0,1.0992426E1,1.545474E2,2.1157635E2,5.910211E0,1.4863718E2,1.6437855E1,1.951385E2,4.1053047E0,1.4453188E2,2.4416058E0,1.399625E1,1.4305682E2,1.4750516E0],"tree_param":{"num_deleted":"0","num_feature":"16","num_nodes":"21","size_leaf_vector":"1"}},{"base_weights":[1.454054E-1,-1.392068E0,1.0848683E0,1.2138407E-1,-2.9652607E-2,-5.838651E-1,1.1913309E0,2.8007887E-2,-2.6447304E-2,-2.9517386E-2,2.7562851E-2,-2.5237842E-2,1.2181454E0,3.2262352E-1,1.2739908E0,-3.0222319E-2,2.8395517E-2,1.2861309E0,-2.3011765E-2,2.2911685E-2,2.825068E-2],"categories":[],"categories_nodes":[],"categories_segments":[],"categories_sizes":[],"default_left":[0,0,0,0,0,0,0,0,0,0,0,0,0,0,0,0,0,0,0,0,0],"id":21,"left_children":[1,3,5,7,-1,9,11,-1,-1,-1,-1,-1,13,15,17,-1,-1,19,-1,-1,-1],"loss_changes":[9.142954E2,3.309207E1,7.048352E1,2.8593458E1,0E0,4.443857E1,2.584961E1,0E0,0E0,0E0,0E0,0E0,1.7898132E1,4.807602E1,1.1613586E1,0E0,0E0,4.475952E0,0E0,0E0,0E0],"parents":[2147483647,0,0,1,1,2,2,3,3,5,5,6,6,12,12,13,13,14,14,17,17],"right_children":[2,4,6,8,-1,10,12,-1,-1,-1,-1,-1,14,16,18,-1,-1,20,-1,-1,-1],"split_conditions":[1.5228293E-2,2.529141E-1,4.0222245E-1,3.900352E-2,-2.9652607E-2,4.9335682E-1,1.2315271E-3,2.8007887E-2,-2.6447304E-2,-2.9517386E-2,2.7562851E-2,-2.5237842E-2,1.11827955E-1,3.9631438E-1,8.508418E-1,-3.0222319E-2,2.8395517E-2,3.5268816E-1,-2.3011765E-2,2.2911685E-2,2.825068E-2],"split_indices":[8,6,5,13,0,9,12,0,0,0,0,0,4,8,6,0,0,4,0,0,0],"split_type":[0,0,0,0,0,0,0,0,0,0,0,0,0,0,0,0,0,0,0,0,0],"sum_hessian":[6.30948E2,2.3912589E2,3.918221E2,1.348178E1,2.256441E2,2.3229559E1,3.6859256E2,7.1646667E0,6.317114E0,1.6139635E1,7.0899234E0,3.48725E0,3.651053E2,2.1829548E1,3.4327576E2,8.030448E0,1.37991E1,3.4203268E2,1.243056E0,1.6672043E2,1.7531226E2],"tree_param":{"num_deleted":"0","num_feature":"16","num_nodes":"21","size_leaf_vector":"1"}},{"base_weights":[8.6849E-2,-1.376718E0,1.0326698E0,-2.936915E-2,-2.2722861E-1,1.1771882E0,-2.877503E-2,2.7694294E-2,-2.7163092E-2,-2.3816766E-2,1.1959261E0,-2.5315722E-2,1.2140788E0,1.0612942E0,1.4382362E0,-2.9006137E-2,2.305902E-2,1.6251562E-2,2.943242E-2],"categories":[],"categories_nodes":[],"categories_segments":[],"categories_sizes":[],"default_left":[0,0,0,0,0,0,0,0,0,0,0,0,0,0,0,0,0,0,0],"id":22,"left_children":[1,3,5,-1,7,9,-1,-1,-1,-1,11,-1,13,15,17,-1,-1,-1,-1],"loss_changes":[8.249247E2,2.4338226E1,1.3096606E2,0E0,3.556059E1,1.6621277E1,0E0,0E0,0E0,0E0,1.6743774E1,0E0,1.0060425E1,4.8865997E1,1.6097412E0,0E0,0E0,0E0,0E0],"parents":[2147483647,0,0,1,1,2,2,4,4,5,5,10,10,12,12,13,13,14,14],"right_children":[2,4,6,-1,8,10,-1,-1,-1,-1,12,-1,14,16,18,-1,-1,-1,-1],"split_conditions":[1.5228293E-2,9.692959E-3,4.862069E-1,-2.936915E-2,7.6389196E-4,1.2315271E-3,-2.877503E-2,2.7694294E-2,-2.7163092E-2,-2.3816766E-2,1.3891625E-1,-2.5315722E-2,2.67051E-1,1.1096774E-1,2.8633004E-2,-2.9006137E-2,2.305902E-2,1.6251562E-2,2.943242E-2],"split_indices":[8,9,3,0,7,12,0,0,0,0,3,0,9,4,12,0,0,0,0],"split_type":[0,0,0,0,0,0,0,0,0,0,0,0,0,0,0,0,0,0,0],"sum_hessian":[5.9389966E2,2.3296031E2,3.6093936E2,2.154852E2,1.7475119E1,3.414939E2,1.9445457E1,7.1127257E0,1.0362392E1,2.189911E0,3.39304E2,1.9806006E0,3.373234E2,2.0400752E2,1.3331587E2,6.6608973E0,1.9734662E2,8.036935E0,1.2527894E2],"tree_param":{"num_deleted":"0","num_feature":"16","num_nodes":"19","size_leaf_vector":"1"}},{"base_weights":[2.8628446E-2,-1.367555E0,1.0031997E0,-2.9100709E-2,-1.2788624E-1,1.1545098E0,-2.8543042E-2,2.7391195E-2,-2.6552515E-2,8.2174236E-1,1.3322254E0,-3.500847E-2,1.0113007E0,-2.9422797E-2,1.37233E0,1.1352102E0,-3.1979006E-2,1.0435095E0,1.3944132E0,2.4771353E-2,-3.340248E-2,2.6941463E-2,-2.603118E-2,1.8402189E-2,2.8191945E-2],"categories":[],"categories_nodes":[],"categories_segments":[],"categories_sizes":[],"default_left":[0,0,0,0,0,0,0,0,0,0,0,0,0,0,0,0,0,0,0,0,0,0,0,0,0],"id":23,"left_children":[1,3,5,-1,7,9,-1,-1,-1,11,13,-1,15,-1,17,19,-1,21,23,-1,-1,-1,-1,-1,-1],"loss_changes":[7.9916547E2,2.5998138E1,1.2883746E2,0E0,3.238046E1,1.8193268E1,0E0,0E0,0E0,5.84041E1,2.5741058E1,0E0,3.700985E1,0E0,5.923462E-2,3.2359573E1,0E0,1.3924837E1,8.895874E-2,0E0,0E0,0E0,0E0,0E0,0E0],"parents":[2147483647,0,0,1,1,2,2,4,4,5,5,9,9,10,10,12,12,14,14,15,15,17,17,18,18],"right_children":[2,4,6,-1,8,10,-1,-1,-1,12,14,-1,16,-1,18,20,-1,22,24,-1,-1,-1,-1,-1,-1],"split_conditions":[1.5228293E-2,9.692959E-3,4.862069E-1,-2.9100709E-2,7.6389196E-4,1.7463513E-1,-2.8543042E-2,2.7391195E-2,-2.6552515E-2,3.3743843E-1,3.1756446E-2,-3.500847E-2,4.3548387E-2,-2.9422797E-2,5.662871E-2,8.214882E-1,-3.1979006E-2,4.3031804E-2,6.900352E-1,2.4771353E-2,-3.340248E-2,2.6941463E-2,-2.603118E-2,1.8402189E-2,2.8191945E-2],"split_indices":[8,9,3,0,7,13,0,0,0,3,8,0,0,0,8,5,0,8,2,0,0,0,0,0,0],"split_type":[0,0,0,0,0,0,0,0,0,0,0,0,0,0,0,0,0,0,0,0,0,0,0,0,0],"sum_hessian":[5.853196E2,2.4044775E2,3.4487183E2,2.2443611E2,1.601165E1,3.2515323E2,1.9718601E1,7.0592065E0,8.952444E0,1.1515417E2,2.0999905E2,7.3387337E0,1.0781544E2,2.4585733E0,2.0754048E2,1.03468834E2,4.3466043E0,1.6097801E1,1.9144267E2,1.0033082E2,3.138017E0,1.4629604E1,1.4681966E0,7.84933E0,1.8359335E2],"tree_param":{"num_deleted":"0","num_feature":"16","num_nodes":"25","size_leaf_vector":"1"}},{"base_weights":[7.899624E-2,-1.354743E0,1.0141966E0,1.4468913E-1,-2.8828885E-2,1.1514397E0,-2.8138505E-2,2.522215E-2,-2.5113255E-2,8.6527175E-1,1.3388911E0,-3.3295035E-2,9.93201E-1,1.3585767E0,-2.1511806E-2,-2.9110689E-2,1.0775089E0,1.0348845E0,2.7855175E-2,2.6929032E-2,1.1894403E-2,-2.681564E-2,2.5018878E-2],"categories":[],"categories_nodes":[],"categories_segments":[],"categories_sizes":[],"default_left":[0,0,0,0,0,0,0,0,0,0,0,0,0,0,0,0,0,0,0,0,0,0,0],"id":24,"left_children":[1,3,5,7,-1,9,-1,-1,-1,11,13,-1,15,17,-1,-1,19,21,-1,-1,-1,-1,-1],"loss_changes":[8.091028E2,3.1181E1,1.2295734E2,2.3364052E1,0E0,1.7408508E1,0E0,0E0,0E0,4.6907448E1,1.1314636E1,0E0,2.9173431E1,8.387146E-1,0E0,0E0,1.60578E1,1.3777721E1,0E0,0E0,0E0,0E0,0E0],"parents":[2147483647,0,0,1,1,2,2,3,3,5,5,9,9,10,10,12,12,13,13,16,16,17,17],"right_children":[2,4,6,8,-1,10,-1,-1,-1,12,14,-1,16,18,-1,-1,20,22,-1,-1,-1,-1,-1],"split_conditions":[1.5228293E-2,2.529141E-1,4.862069E-1,7.6389196E-4,-2.8828885E-2,1.1242555E-1,-2.8138505E-2,2.522215E-2,-2.5113255E-2,2.551724E-1,8.4652466E-1,-3.3295035E-2,5.6795174E-1,1.0752688E-3,-2.1511806E-2,-2.9110689E-2,1.6009852E-2,7.679522E-1,2.7855175E-2,2.6929032E-2,1.1894403E-2,-2.681564E-2,2.5018878E-2],"split_indices":[8,6,3,7,0,8,0,0,0,3,6,0,5,0,0,0,12,6,0,0,0,0,0],"split_type":[0,0,0,0,0,0,0,0,0,0,0,0,0,0,0,0,0,0,0,0,0,0,0],"sum_hessian":[6.0140796E2,2.3724431E2,3.6416367E2,1.2931704E1,2.243126E2,3.4512448E2,1.9039207E1,7.2506337E0,5.6810694E0,1.3881781E2,2.0630666E2,6.1032085E0,1.327146E2,2.05072E2,1.2346507E0,3.875836E0,1.2883876E2,2.2574575E1,1.8249744E2,8.1595955E1,4.724281E1,1.4479649E0,2.112661E1],"tree_param":{"num_deleted":"0","num_feature":"16","num_nodes":"23","size_leaf_vector":"1"}},{"base_weights":[5.8805984E-2,-2.859436E-2,1.0085074E0,1.1280588E0,-2.7692327E-2,7.928695E-1,1.2797562E0,-1.3917865E-1,1.3378224E0,1.3001059E0,-2.2354877E-2,8.1074774E-1,-3.7462562E-2,-2.5145398E-2,1.4035723E0,1.0692976E0,2.730422E-2,-3.0298926E-2,2.3713354E-2,1.9944979E-2,3.0190779E-2,2.5927102E-2,-3.7190646E-2],"categories":[],"categories_nodes":[],"categories_segments":[],"categories_sizes":[],"default_left":[0,0,0,0,0,0,0,0,0,0,0,0,0,0,0,0,0,0,0,0,0,0,0],"id":25,"left_children":[1,-1,3,5,-1,7,9,11,13,15,-1,17,-1,-1,19,21,-1,-1,-1,-1,-1,-1,-1],"loss_changes":[8.18464E2,0E0,1.02676575E2,1.6128906E1,0E0,5.4876953E1,1.2698059E1,6.844722E1,1.3374451E1,1.9813843E0,0E0,2.5295023E1,0E0,0E0,1.3722229E0,3.8984894E1,0E0,0E0,0E0,0E0,0E0,0E0,0E0],"parents":[2147483647,0,0,2,2,3,3,5,5,6,6,7,7,8,8,9,9,11,11,14,14,15,15],"right_children":[2,-1,4,6,-1,8,10,12,14,16,-1,18,-1,-1,20,22,-1,-1,-1,-1,-1,-1,-1],"split_conditions":[1.5228293E-2,-2.859436E-2,4.862069E-1,8.02571E-2,-2.7692327E-2,4.6692356E-1,8.4652466E-1,3.8872498E-1,3.2118228E-1,1.5777554E-1,-2.2354877E-2,2.4539502E-1,-3.7462562E-2,-2.5145398E-2,3.9655173E-1,1.9008118E-1,2.730422E-2,-3.0298926E-2,2.3713354E-2,1.9944979E-2,3.0190779E-2,2.5927102E-2,-3.7190646E-2],"split_indices":[8,0,3,9,0,1,6,6,3,13,0,6,0,0,3,14,0,0,0,0,0,0,0],"split_type":[0,0,0,0,0,0,0,0,0,0,0,0,0,0,0,0,0,0,0,0,0,0,0],"sum_hessian":[5.769509E2,2.2452849E2,3.5242242E2,3.3615787E2,1.6264557E1,1.0667544E2,2.2948242E2,3.96336E1,6.704184E1,2.2800487E2,1.4775524E0,2.594973E1,1.36838665E1,1.2088182E0,6.583302E1,5.3997826E1,1.7400705E2,3.1804051E0,2.2769325E1,1.57709875E1,5.0062035E1,5.0630108E1,3.3677187E0],"tree_param":{"num_deleted":"0","num_feature":"16","num_nodes":"23","size_leaf_vector":"1"}},{"base_weights":[-4.9324147E-3,-1.3266737E0,9.525424E-1,-2.8322466E-2,-3.496774E-1,1.0869323E0,-2.7420131E-2,2.427287E-2,-2.6644222E-2,-2.4620513E-2,1.1100835E0,8.207444E-1,1.2799894E0,1.0274472E0,-3.371259E-2,4.8599795E-1,1.3205893E0,2.2306783E-2,-3.364354E-2,2.6591372E-2,-2.9085904E-2,1.3266363E-2,2.696557E-2],"categories":[],"categories_nodes":[],"categories_segments":[],"categories_sizes":[],"default_left":[0,0,0,0,0,0,0,0,0,0,0,0,0,0,0,0,0,0,0,0,0,0,0],"id":26,"left_children":[1,3,5,-1,7,9,-1,-1,-1,-1,11,13,15,17,-1,19,21,-1,-1,-1,-1,-1,-1],"loss_changes":[6.8912885E2,1.949591E1,1.0009772E2,0E0,3.3127872E1,1.7416077E1,0E0,0E0,0E0,0E0,1.3532623E1,6.0034157E1,5.3253784E0,2.6783264E1,0E0,1.9262463E1,2.3000488E0,0E0,0E0,0E0,0E0,0E0,0E0],"parents":[2147483647,0,0,1,1,2,2,4,4,5,5,10,10,11,11,12,12,13,13,15,15,16,16],"right_children":[2,4,6,-1,8,10,-1,-1,-1,-1,12,14,16,18,-1,20,22,-1,-1,-1,-1,-1,-1],"split_conditions":[1.5228293E-2,8.545844E-1,4.862069E-1,-2.8322466E-2,1.7857144E-2,1.2315271E-3,-2.7420131E-2,2.427287E-2,-2.6644222E-2,-2.4620513E-2,1.8067439E-1,6.219212E-2,3.823737E-2,8.292941E-1,-3.371259E-2,5.541872E-3,1.2448609E-3,2.2306783E-2,-3.364354E-2,2.6591372E-2,-2.9085904E-2,1.3266363E-2,2.696557E-2],"split_indices":[8,2,3,0,12,12,0,0,0,0,13,12,8,5,0,12,7,0,0,0,0,0,0],"split_type":[0,0,0,0,0,0,0,0,0,0,0,0,0,0,0,0,0,0,0,0,0,0,0],"sum_hessian":[5.425375E2,2.2775232E2,3.1478513E2,2.0823752E2,1.9514793E1,2.9807712E2,1.6708035E1,7.4406576E0,1.2074136E1,2.4317362E0,2.9564536E2,1.1153641E2,1.8410896E2,1.03583824E2,7.9525847E0,9.587212E0,1.7452174E2,1.0089934E2,2.6844869E0,6.90146E0,2.685751E0,8.063813E0,1.6645793E2],"tree_param":{"num_deleted":"0","num_feature":"16","num_nodes":"23","size_leaf_vector":"1"}},{"base_weights":[6.0557593E-2,-1.3167425E0,9.7702825E-1,3.345166E-2,-2.809421E-2,1.1138533E0,-2.7331017E-2,2.5020335E-2,-2.5090532E-2,-2.482038E-2,1.137048E0,1.1481582E0,-1.963501E-2,1.0550241E0,2.9367456E-2,1.0354805E-2,2.419223E-2],"categories":[],"categories_nodes":[],"categories_segments":[],"categories_sizes":[],"default_left":[0,0,0,0,0,0,0,0,0,0,0,0,0,0,0,0,0],"id":27,"left_children":[1,3,5,7,-1,9,-1,-1,-1,-1,11,13,-1,15,-1,-1,-1],"loss_changes":[7.237216E2,2.72583E1,1.1190469E2,2.5077E1,0E0,1.920636E1,0E0,0E0,0E0,0E0,8.733948E0,8.0513E0,0E0,2.0381958E1,0E0,0E0,0E0],"parents":[2147483647,0,0,1,1,2,2,3,3,5,5,10,10,11,11,13,13],"right_children":[2,4,6,8,-1,10,-1,-1,-1,-1,12,14,-1,16,-1,-1,-1],"split_conditions":[1.5228293E-2,2.529141E-1,4.862069E-1,7.6389196E-4,-2.809421E-2,1.2315271E-3,-2.7331017E-2,2.5020335E-2,-2.5090532E-2,-2.482038E-2,8.576054E-1,5.2793837E-1,-1.963501E-2,6.0021818E-2,2.9367456E-2,1.0354805E-2,2.419223E-2],"split_indices":[8,6,3,7,0,12,0,0,0,0,6,1,0,9,0,0,0],"split_type":[0,0,0,0,0,0,0,0,0,0,0,0,0,0,0,0,0],"sum_hessian":[5.7133685E2,2.2810176E2,3.4323508E2,1.3990184E1,2.1411157E2,3.2479718E2,1.8437902E1,7.206426E0,6.783757E0,2.6558347E0,3.2214133E2,3.209167E2,1.2246408E0,2.5193613E2,6.898057E1,5.7262814E1,1.9467331E2],"tree_param":{"num_deleted":"0","num_feature":"16","num_nodes":"17","size_leaf_vector":"1"}},{"base_weights":[7.8732304E-2,-1.3082299E0,9.766387E-1,1.6679253E-1,-2.791221E-2,1.1102417E0,-2.7148817E-2,2.5170833E-2,-2.4459876E-2,1.1347661E0,-2.7627388E-2,8.29924E-1,1.3198879E0,-3.2875933E-2,9.6769E-1,8.106148E-1,1.3367131E0,-2.6618263E-2,2.1425461E-2,-2.971218E-2,2.6630513E-2,2.706205E-2,1.6279373E-2],"categories":[],"categories_nodes":[],"categories_segments":[],"categories_sizes":[],"default_left":[0,0,0,0,0,0,0,0,0,0,0,0,0,0,0,0,0,0,0,0,0,0,0],"id":28,"left_children":[1,3,5,7,-1,9,-1,-1,-1,11,-1,13,15,-1,17,19,21,-1,-1,-1,-1,-1,-1],"loss_changes":[7.2100183E2,2.9559967E1,1.110827E2,2.2203058E1,0E0,2.1910095E1,0E0,0E0,0E0,1.753955E1,0E0,4.502758E1,6.62323E-1,0E0,3.0321945E1,1.281164E1,5.7528687E-1,0E0,0E0,0E0,0E0,0E0,0E0],"parents":[2147483647,0,0,1,1,2,2,3,3,5,5,9,9,11,11,12,12,14,14,15,15,16,16],"right_children":[2,4,6,8,-1,10,-1,-1,-1,12,-1,14,16,-1,18,20,22,-1,-1,-1,-1,-1,-1],"split_conditions":[1.55738145E-2,2.529141E-1,4.862069E-1,1.6129032E-1,-2.791221E-2,8.508418E-1,-2.7148817E-2,2.5170833E-2,-2.4459876E-2,1.1159542E-1,-2.7627388E-2,2.551724E-1,6.2598425E-1,-3.2875933E-2,1.1096774E-1,4.1811174E-1,1.827957E-1,-2.6618263E-2,2.1425461E-2,-2.971218E-2,2.6630513E-2,2.706205E-2,1.6279373E-2],"split_indices":[8,6,3,4,0,6,0,0,0,14,0,3,10,0,4,1,0,0,0,0,0,0,0],"split_type":[0,0,0,0,0,0,0,0,0,0,0,0,0,0,0,0,0,0,0,0,0,0,0],"sum_hessian":[5.769235E2,2.265395E2,3.5038403E2,1.2618858E1,2.1392064E2,3.319098E2,1.8474222E1,7.120093E0,5.498766E0,3.29214E2,2.695824E0,1.2645771E2,2.0275626E2,6.094436E0,1.2036327E2,8.057153E0,1.9469911E2,4.6791863E0,1.1568409E2,1.147393E0,6.9097595E0,1.8724019E2,7.458924E0],"tree_param":{"num_deleted":"0","num_feature":"16","num_nodes":"23","size_leaf_vector":"1"}},{"base_weights":[1.2036056E-2,-1.2949572E0,9.270575E-1,-2.765531E-2,-1.47705E-1,-2.6094532E-2,9.8011804E-1,2.6366599E-2,-2.5265744E-2,6.6764444E-1,1.2162182E0,-1.0990986E-1,1.3884553E0,5.1506495E-1,1.2521244E0,-3.1759694E-2,4.201985E-1,2.8982017E-2,-2.2746496E-2,-2.6954565E-2,2.6010687E-2,1.0669086E0,1.3372928E0,-3.2515075E-2,1.5455322E-2,-3.208024E-2,2.4083724E-2,-2.5690714E-2,2.7558526E-2],"categories":[],"categories_nodes":[],"categories_segments":[],"categories_sizes":[],"default_left":[0,0,0,0,0,0,0,0,0,0,0,0,0,0,0,0,0,0,0,0,0,0,0,0,0,0,0,0,0],"id":29,"left_children":[1,3,5,-1,7,-1,9,-1,-1,11,13,15,17,19,21,-1,23,-1,-1,-1,-1,25,27,-1,-1,-1,-1,-1,-1],"loss_changes":[6.502946E2,2.2353333E1,3.9153137E1,0E0,2.9533485E1,0E0,2.2277802E1,0E0,0E0,7.68911E1,3.8125916E0,5.3002415E1,1.2542847E1,1.685885E1,1.2191467E0,0E0,3.7288734E1,0E0,0E0,0E0,0E0,2.311705E1,1.35902405E1,0E0,0E0,0E0,0E0,0E0,0E0],"parents":[2147483647,0,0,1,1,2,2,4,4,6,6,9,9,10,10,11,11,12,12,13,13,14,14,16,16,21,21,22,22],"right_children":[2,4,6,-1,8,-1,10,-1,-1,12,14,16,18,20,22,-1,24,-1,-1,-1,-1,26,28,-1,-1,-1,-1,-1,-1],"split_conditions":[1.5228293E-2,9.692959E-3,1.2315271E-3,-2.765531E-2,7.6389196E-4,-2.6094532E-2,1.8067439E-1,2.6366599E-2,-2.5265744E-2,4.9646756E-1,3.1756446E-2,1.7849462E-1,3.623553E-2,3.7619528E-1,3.0021507E-1,-3.1759694E-2,4.750258E-2,2.8982017E-2,-2.2746496E-2,-2.6954565E-2,2.6010687E-2,1.2340962E-1,1.977856E-1,-3.2515075E-2,1.5455322E-2,-3.208024E-2,2.4083724E-2,-2.5690714E-2,2.7558526E-2],"split_indices":[8,9,12,0,7,0,13,0,0,1,8,4,13,13,4,0,8,0,0,0,0,9,13,0,0,0,0,0,0],"split_type":[0,0,0,0,0,0,0,0,0,0,0,0,0,0,0,0,0,0,0,0,0,0,0,0,0,0,0,0,0],"sum_hessian":[5.41754E2,2.2292229E2,3.1883173E2,2.0688263E2,1.6039654E1,6.8563557E0,3.1197537E2,6.852606E0,9.187049E0,1.3591824E2,1.7605711E2,6.5793205E1,7.0125046E1,9.324237E0,1.6673288E2,1.6840918E1,4.8952286E1,6.889706E1,1.227985E0,2.5532377E0,6.770999E0,5.6780125E1,1.0995276E2,6.6648617E0,4.2287426E1,2.2533696E0,5.4526756E1,1.2108579E0,1.087419E2],"tree_param":{"num_deleted":"0","num_feature":"16","num_nodes":"29","size_leaf_vector":"1"}},{"base_weights":[5.390576E-2,-1.2913741E0,9.663693E-1,1.0035022E-1,-2.7515657E-2,-5.293796E-1,1.0671176E0,2.6105618E-2,-2.5347304E-2,-2.7932791E-2,2.5144348E-2,-2.4910407E-2,1.102936E0,5.087175E-1,1.2059538E0,1.0406592E0,-5.492217E-1,1.0164579E0,1.3030332E0,2.295331E-2,-1.9485123E-2,-3.699305E-2,2.4843108E-2,2.1788627E-2,-3.2263685E-2,2.0807398E-2,2.7306609E-2],"categories":[],"categories_nodes":[],"categories_segments":[],"categories_sizes":[],"default_left":[0,0,0,0,0,0,0,0,0,0,0,0,0,0,0,0,0,0,0,0,0,0,0,0,0,0,0],"id":30,"left_children":[1,3,5,7,-1,9,11,-1,-1,-1,-1,-1,13,15,17,19,21,23,25,-1,-1,-1,-1,-1,-1,-1,-1],"loss_changes":[6.7985254E2,2.6434784E1,5.029019E1,2.4285269E1,0E0,3.505613E1,2.7009674E1,0E0,0E0,0E0,0E0,0E0,1.8075043E1,2.6929707E1,3.4484863E0,7.9123497E0,4.0328354E1,1.949604E1,1.3288269E0,0E0,0E0,0E0,0E0,0E0,0E0,0E0,0E0],"parents":[2147483647,0,0,1,1,2,2,3,3,5,5,6,6,12,12,13,13,14,14,15,15,16,16,17,17,18,18],"right_children":[2,4,6,8,-1,10,12,-1,-1,-1,-1,-1,14,16,18,20,22,24,26,-1,-1,-1,-1,-1,-1,-1,-1],"split_conditions":[1.8687878E-2,2.529141E-1,4.0222245E-1,1.6129032E-1,-2.7515657E-2,4.9335682E-1,1.2315271E-3,2.6105618E-2,-2.5347304E-2,-2.7932791E-2,2.5144348E-2,-2.4910407E-2,1.7376344E-1,5.7562125E-1,1.2093236E-1,6.666667E-2,1.9301075E-1,9.878403E-2,2.8325124E-2,2.295331E-2,-1.9485123E-2,-3.699305E-2,2.4843108E-2,2.1788627E-2,-3.2263685E-2,2.0807398E-2,2.7306609E-2],"split_indices":[8,6,5,4,0,9,12,0,0,0,0,0,4,5,9,0,0,9,12,0,0,0,0,0,0,0,0],"split_type":[0,0,0,0,0,0,0,0,0,0,0,0,0,0,0,0,0,0,0,0,0,0,0,0,0,0,0],"sum_hessian":[5.5182623E2,2.228519E2,3.2897437E2,1.2732385E1,2.101195E2,2.049174E1,3.084826E2,6.793283E0,5.939101E0,1.3942136E1,6.5496025E0,4.189832E0,3.042928E2,4.583713E1,2.5845566E2,3.0511831E1,1.53253E1,9.143939E1,1.6701627E2,2.938186E1,1.1299715E0,8.86055E0,6.464751E0,8.954032E1,1.899065E0,3.5411404E1,1.3160486E2],"tree_param":{"num_deleted":"0","num_feature":"16","num_nodes":"27","size_leaf_vector":"1"}},{"base_weights":[2.6533958E-2,-1.2781224E0,9.4422925E-1,1.4094357E-1,-2.727283E-2,1.0700101E0,-2.6479306E-2,2.4010438E-2,-2.3650503E-2,-2.3058321E-2,1.0901272E0,1.1078734E0,-2.4546457E-2,8.795289E-1,1.2791995E0,-3.2596253E-2,2.0216135E-2,2.661249E-2,1.7808277E-2],"categories":[],"categories_nodes":[],"categories_segments":[],"categories_sizes":[],"default_left":[0,0,0,0,0,0,0,0,0,0,0,0,0,0,0,0,0,0,0],"id":31,"left_children":[1,3,5,7,-1,9,-1,-1,-1,-1,11,13,-1,15,17,-1,-1,-1,-1],"loss_changes":[6.40817E2,2.7015198E1,9.1055084E1,2.0307724E1,0E0,1.4593842E1,0E0,0E0,0E0,0E0,1.3536255E1,1.0390472E1,0E0,4.4268326E1,2.133545E0,0E0,0E0,0E0,0E0],"parents":[2147483647,0,0,1,1,2,2,3,3,5,5,10,10,11,11,13,13,14,14],"right_children":[2,4,6,8,-1,10,-1,-1,-1,-1,12,14,-1,16,18,-1,-1,-1,-1],"split_conditions":[1.55738145E-2,2.529141E-1,4.862069E-1,7.6389196E-4,-2.727283E-2,1.2315271E-3,-2.6479306E-2,2.4010438E-2,-2.3650503E-2,-2.3058321E-2,8.576054E-1,1.2340962E-1,-2.4546457E-2,2.551724E-1,6.6826165E-1,-3.2596253E-2,2.0216135E-2,2.661249E-2,1.7808277E-2],"split_indices":[8,6,3,7,0,12,0,0,0,0,6,9,0,3,6,0,0,0,0],"split_type":[0,0,0,0,0,0,0,0,0,0,0,0,0,0,0,0,0,0,0],"sum_hessian":[5.3322064E2,2.2002531E2,3.131953E2,1.2469174E1,2.0755614E2,2.9724036E2,1.5954953E1,6.976576E0,5.4925985E0,2.1608348E0,2.9507953E2,2.9335507E2,1.7244623E0,1.2838126E2,1.649738E2,5.814956E0,1.2256631E2,1.4356216E2,2.1411646E1],"tree_param":{"num_deleted":"0","num_feature":"16","num_nodes":"19","size_leaf_vector":"1"}},{"base_weights":[7.623001E-2,-1.2672195E0,9.3527806E-1,9.444189E-2,-2.7029594E-2,1.059803E0,-2.6299087E-2,2.3758389E-2,-2.371077E-2,7.174536E-1,1.2160165E0,1.971278E-2,1.2735533E0,1.242296E0,-2.3544177E-2,9.659745E-1,-3.7172623E-2,-2.5554618E-2,1.3491277E0,1.0090835E0,2.6139135E-2,-2.6092218E-2,2.3490693E-2,1.23727685E-2,2.9181262E-2,2.4435068E-2,-3.5731416E-2],"categories":[],"categories_nodes":[],"categories_segments":[],"categories_sizes":[],"default_left":[0,0,0,0,0,0,0,0,0,0,0,0,0,0,0,0,0,0,0,0,0,0,0,0,0,0,0],"id":32,"left_children":[1,3,5,7,-1,9,-1,-1,-1,11,13,15,17,19,-1,21,-1,-1,23,25,-1,-1,-1,-1,-1,-1,-1],"loss_changes":[6.512063E2,2.5381134E1,9.782196E1,2.0668865E1,0E0,1.6596039E1,0E0,0E0,0E0,4.0632362E1,1.54782715E1,8.620269E1,1.2963707E1,2.0125732E0,0E0,1.6798698E1,0E0,0E0,3.683197E0,3.3303837E1,0E0,0E0,0E0,0E0,0E0,0E0,0E0],"parents":[2147483647,0,0,1,1,2,2,3,3,5,5,9,9,10,10,11,11,12,12,13,13,15,15,18,18,19,19],"right_children":[2,4,6,8,-1,10,-1,-1,-1,12,14,16,18,20,-1,22,-1,-1,24,26,-1,-1,-1,-1,-1,-1,-1],"split_conditions":[1.5228293E-2,2.529141E-1,4.862069E-1,3.4251967E-1,-2.7029594E-2,8.02571E-2,-2.6299087E-2,2.3758389E-2,-2.371077E-2,4.894027E-1,8.444021E-1,3.8872498E-1,3.2118228E-1,1.5777554E-1,-2.3544177E-2,3.1756446E-2,-3.7172623E-2,-2.5554618E-2,4.1330048E-1,1.9008118E-1,2.6139135E-2,-2.6092218E-2,2.3490693E-2,1.23727685E-2,2.9181262E-2,2.4435068E-2,-3.5731416E-2],"split_indices":[8,6,3,10,0,9,0,0,0,1,6,6,3,13,0,8,0,0,3,14,0,0,0,0,0,0,0],"split_type":[0,0,0,0,0,0,0,0,0,0,0,0,0,0,0,0,0,0,0,0,0,0,0,0,0,0,0],"sum_hessian":[5.622337E2,2.1910472E2,3.43129E2,1.2761168E1,2.0634355E2,3.2563766E2,1.7491335E1,6.920748E0,5.8404193E0,1.0378366E2,2.21854E2,4.6489067E1,5.7294594E1,2.1992004E2,1.9339721E0,3.1237926E1,1.5251139E1,1.1907173E0,5.6103878E1,5.1343834E1,1.685762E2,2.1858082E0,2.9052118E1,8.205833E0,4.7898045E1,4.8237324E1,3.106507E0],"tree_param":{"num_deleted":"0","num_feature":"16","num_nodes":"27","size_leaf_vector":"1"}},{"base_weights":[3.7709724E-2,-1.2566417E0,9.0009683E-1,-2.6850918E-2,-2.4510275E-1,-5.079172E-1,9.9536514E-1,2.5402231E-2,-2.4837865E-2,-2.6845004E-2,2.4458658E-2,-2.3891743E-2,1.0264627E0,7.570328E-1,1.2201669E0,8.196466E-1,-3.2074306E-2,5.9156275E-1,1.2462566E0,6.505566E-3,2.3342034E-2,2.1999998E-2,-2.9465882E-2,1.9489782E-2,2.5913911E-2],"categories":[],"categories_nodes":[],"categories_segments":[],"categories_sizes":[],"default_left":[0,0,0,0,0,0,0,0,0,0,0,0,0,0,0,0,0,0,0,0,0,0,0,0,0],"id":33,"left_children":[1,3,5,-1,7,9,11,-1,-1,-1,-1,-1,13,15,17,19,-1,21,23,-1,-1,-1,-1,-1,-1],"loss_changes":[5.9665247E2,1.8244446E1,4.3532715E1,0E0,2.8695124E1,3.1953457E1,2.1709625E1,0E0,0E0,0E0,0E0,0E0,1.458194E1,2.0071716E1,2.0705414E0,2.0967941E1,0E0,1.0781738E1,9.338379E-1,0E0,0E0,0E0,0E0,0E0,0E0],"parents":[2147483647,0,0,1,1,2,2,4,4,5,5,6,6,12,12,13,13,14,14,15,15,17,17,18,18],"right_children":[2,4,6,-1,8,10,12,-1,-1,-1,-1,-1,14,16,18,20,-1,22,24,-1,-1,-1,-1,-1,-1],"split_conditions":[1.5228293E-2,9.692959E-3,4.0222245E-1,-2.6850918E-2,7.6389196E-4,4.9335682E-1,1.2315271E-3,2.5402231E-2,-2.4837865E-2,-2.6845004E-2,2.4458658E-2,-2.3891743E-2,1.1159542E-1,8.505982E-1,1.2448609E-3,7.7547127E-1,-3.2074306E-2,1.7979953E-1,5.762456E-2,6.505566E-3,2.3342034E-2,2.1999998E-2,-2.9465882E-2,1.9489782E-2,2.5913911E-2],"split_indices":[8,9,5,0,7,9,12,0,0,0,0,0,14,5,15,5,0,8,13,0,0,0,0,0,0],"split_type":[0,0,0,0,0,0,0,0,0,0,0,0,0,0,0,0,0,0,0,0,0,0,0,0,0],"sum_hessian":[5.325103E2,2.1274521E2,3.1976514E2,1.9579059E2,1.6954617E1,1.999014E1,2.99775E2,6.6189685E0,1.0335649E1,1.3639782E1,6.3503585E0,3.6733866E0,2.961016E2,1.2589631E2,1.7020529E2,1.2327939E2,2.616921E0,7.726118E0,1.6247917E2,5.168161E1,7.159778E1,6.5745244E0,1.1515933E0,2.8195986E1,1.3428319E2],"tree_param":{"num_deleted":"0","num_feature":"16","num_nodes":"25","size_leaf_vector":"1"}},{"base_weights":[-3.09706E-2,5.0031406E-1,-2.6689278E-2,6.729285E-1,-2.592702E-2,2.546581E-1,1.0355713E0,-8.967249E-1,9.2210513E-1,-2.8782737E-2,1.1015394E0,2.4927756E-2,-3.1045875E-2,-2.8573785E-2,1.0704198E0,-2.4127582E-2,1.139966E0,-2.3084313E-2,2.3598287E-2,2.3904044E-2,1.5178857E-2],"categories":[],"categories_nodes":[],"categories_segments":[],"categories_sizes":[],"default_left":[0,0,0,0,0,0,0,0,0,0,0,0,0,0,0,0,0,0,0,0,0],"id":34,"left_children":[1,3,-1,5,-1,7,9,11,13,-1,15,-1,-1,-1,17,-1,19,-1,-1,-1,-1],"loss_changes":[3.497454E2,1.1215736E2,0E0,4.949405E1,0E0,1.18913795E2,3.0215775E1,8.18704E1,3.5616165E1,0E0,1.6575027E1,0E0,0E0,0E0,2.390223E1,0E0,2.6517792E0,0E0,0E0,0E0,0E0],"parents":[2147483647,0,0,1,1,3,3,5,5,6,6,7,7,8,8,10,10,14,14,16,16],"right_children":[2,4,-1,6,-1,8,10,12,14,-1,16,-1,-1,-1,18,-1,20,-1,-1,-1,-1],"split_conditions":[4.862069E-1,6.146436E-1,-2.6689278E-2,1.8067439E-1,-2.592702E-2,4.0197045E-1,1.2625436E-3,4.731364E-1,2.1505377E-3,-2.8782737E-2,1.3891625E-1,2.4927756E-2,-3.1045875E-2,-2.8573785E-2,4.9483588E-1,-2.4127582E-2,4.5086706E-1,-2.3084313E-2,2.3598287E-2,2.3904044E-2,1.5178857E-2],"split_indices":[3,1,0,13,0,3,15,2,0,0,3,0,0,0,5,0,1,0,0,0,0],"split_type":[0,0,0,0,0,0,0,0,0,0,0,0,0,0,0,0,0,0,0,0,0],"sum_hessian":[5.0306436E2,3.5783304E2,1.452313E2,3.2703833E2,3.079472E1,1.5266153E2,1.743768E2,5.589539E1,9.676614E1,3.9871705E0,1.7038963E2,1.2881945E1,4.3013447E1,5.2304487E0,9.15357E1,2.292735E0,1.680969E2,3.8463757E0,8.768932E1,1.4494731E2,2.314958E1],"tree_param":{"num_deleted":"0","num_feature":"16","num_nodes":"21","size_leaf_vector":"1"}},{"base_weights":[8.758485E-2,-1.0794888E0,9.027104E-1,3.8288948E-1,-2.653306E-2,1.0323215E0,-2.5831461E-2,-2.4029871E-2,9.0656596E-1,1.0547394E0,-2.486277E-2,-1.995053E-2,1.1516697E0,1.0699216E0,-3.104211E-2,2.6292667E-2,-1.7858697E-2,-2.2429647E-2,1.0863061E0,1.7147152E-2,2.47467E-2],"categories":[],"categories_nodes":[],"categories_segments":[],"categories_sizes":[],"default_left":[0,0,0,0,0,0,0,0,0,0,0,0,0,0,0,0,0,0,0,0,0],"id":35,"left_children":[1,3,5,7,-1,9,-1,-1,11,13,-1,-1,15,17,-1,-1,-1,-1,19,-1,-1],"loss_changes":[5.0860498E2,7.9986115E1,9.084155E1,2.8110481E1,0E0,1.6498413E1,0E0,0E0,1.2838268E1,1.3350494E1,0E0,0E0,8.722342E0,1.1783051E1,0E0,0E0,0E0,0E0,9.055542E0,0E0,0E0],"parents":[2147483647,0,0,1,1,2,2,3,3,5,5,8,8,9,9,12,12,13,13,18,18],"right_children":[2,4,6,8,-1,10,-1,-1,12,14,-1,-1,16,18,-1,-1,-1,-1,20,-1,-1],"split_conditions":[1.645555E-2,3.528925E-1,4.862069E-1,7.525991E-1,-2.653306E-2,8.576054E-1,-2.5831461E-2,-2.4029871E-2,5.7190293E-3,1.9569893E-1,-2.486277E-2,-1.995053E-2,8.380854E-3,1.3891625E-1,-3.104211E-2,2.6292667E-2,-1.7858697E-2,-2.2429647E-2,1.1159542E-1,1.7147152E-2,2.47467E-2],"split_indices":[14,6,3,5,0,6,0,0,14,0,0,0,14,3,0,0,0,0,14,0,0],"split_type":[0,0,0,0,0,0,0,0,0,0,0,0,0,0,0,0,0,0,0,0,0],"sum_hessian":[5.326112E2,2.1888852E2,3.137227E2,3.1567327E1,1.873212E2,2.9672537E2,1.6997324E1,7.520304E0,2.4047022E1,2.943618E2,2.3635793E0,2.3923326E0,2.165469E1,2.932435E2,1.1182884E0,2.0386799E1,1.2678915E0,1.675675E0,2.9156784E2,1.18542694E2,1.7302515E2],"tree_param":{"num_deleted":"0","num_feature":"16","num_nodes":"21","size_leaf_vector":"1"}},{"base_weights":[2.3726553E-2,-1.2231287E0,8.085495E-1,-2.6328294E-2,2.5545966E-2,9.5258796E-1,-2.5734106E-2,7.024233E-1,1.1774234E0,-3.1027833E-2,8.256339E-1,1.2054942E0,-2.1192353E-2,-2.5861412E-2,9.254903E-1,6.3866895E-1,1.2295675E0,1.9103674E-2,-2.5388088E-2,2.4015557E-2,-3.1839427E-2,2.068845E-2,2.5944375E-2],"categories":[],"categories_nodes":[],"categories_segments":[],"categories_sizes":[],"default_left":[0,0,0,0,0,0,0,0,0,0,0,0,0,0,0,0,0,0,0,0,0,0,0],"id":36,"left_children":[1,3,5,-1,-1,7,-1,9,11,-1,13,15,-1,-1,17,19,21,-1,-1,-1,-1,-1,-1],"loss_changes":[5.0349246E2,4.804419E1,9.6517715E1,0E0,0E0,1.5822479E1,0E0,4.0878082E1,1.0974304E1,0E0,2.993895E1,1.3020935E0,0E0,0E0,9.706146E0,1.2335005E1,5.8110046E-1,0E0,0E0,0E0,0E0,0E0,0E0],"parents":[2147483647,0,0,1,1,2,2,5,5,7,7,8,8,10,10,11,11,14,14,15,15,16,16],"right_children":[2,4,6,-1,-1,8,-1,10,12,-1,14,16,-1,-1,18,20,22,-1,-1,-1,-1,-1,-1],"split_conditions":[9.692959E-3,3.46597E-2,4.862069E-1,-2.6328294E-2,2.5545966E-2,1.1159542E-1,-2.5734106E-2,2.551724E-1,8.508418E-1,-3.1027833E-2,1.1096774E-1,6.2598425E-1,-2.1192353E-2,-2.5861412E-2,1.0399746E-1,1.5073891E-1,1.4242576E-1,1.9103674E-2,-2.5388088E-2,2.4015557E-2,-3.1839427E-2,2.068845E-2,2.5944375E-2],"split_indices":[9,14,3,0,0,14,0,3,6,0,4,10,0,0,14,3,13,0,0,0,0,0,0],"split_type":[0,0,0,0,0,0,0,0,0,0,0,0,0,0,0,0,0,0,0,0,0,0,0],"sum_hessian":[5.125129E2,1.9776439E2,3.147485E2,1.9110805E2,6.6563406E0,2.9501318E2,1.9735336E1,1.4159296E2,1.5342021E2,6.738496E0,1.3485446E2,1.5197433E2,1.4458835E0,5.5319066E0,1.2932256E2,7.3130302E0,1.446613E2,1.2815366E2,1.1688987E0,6.2098675E0,1.103163E0,4.1433598E1,1.0322771E2],"tree_param":{"num_deleted":"0","num_feature":"16","num_nodes":"23","size_leaf_vector":"1"}},{"base_weights":[-3.0984038E-2,-1.2235363E0,8.401522E-1,-2.6141495E-2,-2.1370897E-1,9.811901E-1,-2.5448915E-2,2.2078471E-2,-2.4194416E-2,-2.165733E-2,1.000342E0,7.6263076E-1,1.1829549E0,9.0382755E-1,-3.7313215E-2,1.0183452E0,1.2493417E0,-2.4135858E-2,1.9792374E-2,2.5341537E-2,8.911981E-3,2.0525781E-2,2.6788032E-2],"categories":[],"categories_nodes":[],"categories_segments":[],"categories_sizes":[],"default_left":[0,0,0,0,0,0,0,0,0,0,0,0,0,0,0,0,0,0,0,0,0,0,0],"id":37,"left_children":[1,3,5,-1,7,9,-1,-1,-1,-1,11,13,15,17,-1,19,21,-1,-1,-1,-1,-1,-1],"loss_changes":[5.0273016E2,1.695224E1,8.457634E1,0E0,2.3386274E1,1.1468994E1,0E0,0E0,0E0,0E0,1.0420319E1,4.478453E1,3.1991577E-1,2.1272919E1,0E0,6.171013E0,6.2246704E-1,0E0,0E0,0E0,0E0,0E0,0E0],"parents":[2147483647,0,0,1,1,2,2,4,4,5,5,10,10,11,11,12,12,13,13,15,15,16,16],"right_children":[2,4,6,-1,8,10,-1,-1,-1,-1,12,14,16,18,-1,20,22,-1,-1,-1,-1,-1,-1],"split_conditions":[1.5228293E-2,8.545844E-1,4.862069E-1,-2.6141495E-2,8.571866E-1,1.2315271E-3,-2.5448915E-2,2.2078471E-2,-2.4194416E-2,-2.165733E-2,1.1159542E-1,7.366508E-2,3.6637932E-2,1.08817205E-1,-3.7313215E-2,8.004926E-3,2.060215E-1,-2.4135858E-2,1.9792374E-2,2.5341537E-2,8.911981E-3,2.0525781E-2,2.6788032E-2],"split_indices":[8,2,3,0,2,12,0,0,0,0,14,14,12,4,0,12,4,0,0,0,0,0,0],"split_type":[0,0,0,0,0,0,0,0,0,0,0,0,0,0,0,0,0,0,0,0,0,0,0],"sum_hessian":[4.819282E2,2.0326358E2,2.786646E2,1.8746138E2,1.5802201E1,2.6172714E2,1.6937454E1,6.756124E0,9.046078E0,1.8955657E0,2.5983157E2,1.1513461E2,1.4469696E2,1.09887375E2,5.2472415E0,4.628076E1,9.84162E1,3.7817867E0,1.0610559E2,3.1422396E1,1.4858368E1,3.1872581E1,6.654362E1],"tree_param":{"num_deleted":"0","num_feature":"16","num_nodes":"23","size_leaf_vector":"1"}},{"base_weights":[4.126978E-2,-2.6077343E-2,8.998312E-1,1.0213835E0,-2.5184015E-2,1.0391982E0,-2.2626782E-2,-2.0151963E-2,1.0542368E0,-2.2611288E-2,1.067492E0,1.595395E-2,2.3808787E-2],"categories":[],"categories_nodes":[],"categories_segments":[],"categories_sizes":[],"default_left":[0,0,0,0,0,0,0,0,0,0,0,0,0],"id":38,"left_children":[1,-1,3,5,-1,7,-1,-1,9,-1,11,-1,-1],"loss_changes":[5.864565E2,0E0,8.262436E1,1.2449341E1,0E0,1.0052765E1,0E0,0E0,9.617859E0,0E0,8.64328E0,0E0,0E0],"parents":[2147483647,0,0,2,2,3,3,5,5,8,8,10,10],"right_children":[2,-1,4,6,-1,8,-1,-1,10,-1,12,-1,-1],"split_conditions":[1.55738145E-2,-2.6077343E-2,4.862069E-1,8.576054E-1,-2.5184015E-2,1.2315271E-3,-2.2626782E-2,-2.0151963E-2,2.563657E-1,-2.2611288E-2,9.09149E-2,1.595395E-2,2.3808787E-2],"split_indices":[8,0,3,6,0,12,0,0,5,0,8,0,0],"split_type":[0,0,0,0,0,0,0,0,0,0,0,0,0],"sum_hessian":[5.057902E2,1.968539E2,3.0893628E2,2.929692E2,1.596708E1,2.910777E2,1.891516E0,1.6416792E0,2.89436E2,1.237099E0,2.881989E2,9.2564476E1,1.9563443E2],"tree_param":{"num_deleted":"0","num_feature":"16","num_nodes":"13","size_leaf_vector":"1"}},{"base_weights":[-1.2000065E-2,-1.20446E0,8.1630695E-1,-2.5834786E-2,-1.1090627E-1,9.346461E-1,-2.4856877E-2,2.45934E-2,-2.3484865E-2,6.702345E-1,1.1214726E0,8.823106E-1,-3.6052577E-2,-2.7894136E-2,1.1739655E0,1.0127469E0,-3.5787508E-2,9.898873E-1,1.2360691E0,2.1799853E-2,-2.5279244E-2,-2.8658452E-2,2.3110496E-2,1.7658772E-2,2.5526918E-2],"categories":[],"categories_nodes":[],"categories_segments":[],"categories_sizes":[],"default_left":[0,0,0,0,0,0,0,0,0,0,0,0,0,0,0,0,0,0,0,0,0,0,0,0,0],"id":39,"left_children":[1,3,5,-1,7,9,-1,-1,-1,11,13,15,-1,-1,17,19,-1,21,23,-1,-1,-1,-1,-1,-1],"loss_changes":[4.7310104E2,1.8595276E1,7.0038956E1,0E0,2.3688984E1,1.2480713E1,0E0,0E0,0E0,6.105628E1,2.2172821E1,3.843975E1,0E0,0E0,5.236969E-1,1.9114006E1,0E0,1.9143986E1,4.4136047E-1,0E0,0E0,0E0,0E0,0E0,0E0],"parents":[2147483647,0,0,1,1,2,2,4,4,5,5,9,9,10,10,11,11,14,14,15,15,17,17,18,18],"right_children":[2,4,6,-1,8,10,-1,-1,-1,12,14,16,-1,-1,18,20,-1,22,24,-1,-1,-1,-1,-1,-1],"split_conditions":[1.5228293E-2,9.692959E-3,4.862069E-1,-2.5834786E-2,7.6389196E-4,1.7463513E-1,-2.4856877E-2,2.45934E-2,-2.3484865E-2,1.04932055E-1,3.1756446E-2,8.214882E-1,-3.6052577E-2,-2.7894136E-2,1.2340962E-1,4.3548387E-2,-3.5787508E-2,2.3004927E-1,1.2448609E-3,2.1799853E-2,-2.5279244E-2,-2.8658452E-2,2.3110496E-2,1.7658772E-2,2.5526918E-2],"split_indices":[8,9,3,0,7,13,0,0,0,13,8,5,0,0,9,0,0,3,7,0,0,0,0,0,0],"split_type":[0,0,0,0,0,0,0,0,0,0,0,0,0,0,0,0,0,0,0,0,0,0,0,0,0],"sum_hessian":[4.7698602E2,1.9532915E2,2.8165686E2,1.8072389E2,1.4605258E1,2.668662E2,1.4790674E1,6.391237E0,8.214022E0,1.1239015E2,1.5447604E2,1.04105156E2,8.284998E0,2.634307E0,1.5184174E2,9.985118E1,4.2539744E0,4.2577972E1,1.0926376E2,9.7078674E1,2.772507E0,2.235018E0,4.0342953E1,1.35331135E1,9.573065E1],"tree_param":{"num_deleted":"0","num_feature":"16","num_nodes":"25","size_leaf_vector":"1"}},{"base_weights":[-3.7974E-2,-1.1977097E0,7.830574E-1,7.2312675E-2,-2.5667598E-2,9.064736E-1,-2.4868047E-2,2.259473E-2,-2.2551911E-2,7.154025E-1,1.2538471E0,-2.9293E-2,8.2198554E-1,9.8306143E-1,2.6178367E-2,-3.177412E-2,9.1808057E-1,2.4630325E-2,4.6622077E-1,1.1529745E-2,2.3062885E-2,2.2210743E-2,-3.008467E-2],"categories":[],"categories_nodes":[],"categories_segments":[],"categories_sizes":[],"default_left":[0,0,0,0,0,0,0,0,0,0,0,0,0,0,0,0,0,0,0,0,0,0,0],"id":40,"left_children":[1,3,5,7,-1,9,-1,-1,-1,11,13,-1,15,17,-1,-1,19,-1,21,-1,-1,-1,-1],"loss_changes":[4.487395E2,2.134549E1,7.014398E1,1.8136719E1,0E0,1.6406174E1,0E0,0E0,0E0,4.0824127E1,7.299805E-2,0E0,3.9266434E1,1.920475E0,0E0,0E0,1.1988663E1,0E0,1.1720854E1,0E0,0E0,0E0,0E0],"parents":[2147483647,0,0,1,1,2,2,3,3,5,5,9,9,10,10,12,12,13,13,16,16,18,18],"right_children":[2,4,6,8,-1,10,-1,-1,-1,12,14,-1,16,18,-1,-1,20,-1,22,-1,-1,-1,-1],"split_conditions":[1.5228293E-2,2.529141E-1,4.862069E-1,7.6389196E-4,-2.5667598E-2,2.7462012E-1,-2.4868047E-2,2.259473E-2,-2.2551911E-2,1.20430104E-1,8.060615E-1,-2.9293E-2,2.551724E-1,3.049261E-1,2.6178367E-2,-3.177412E-2,3.4537634E-1,2.4630325E-2,6.4096534E-1,1.1529745E-2,2.3062885E-2,2.2210743E-2,-3.008467E-2],"split_indices":[8,6,3,7,0,9,0,0,0,4,2,0,3,3,0,0,4,0,5,0,0,0,0],"split_type":[0,0,0,0,0,0,0,0,0,0,0,0,0,0,0,0,0,0,0,0,0,0,0],"sum_hessian":[4.692912E2,1.9433185E2,2.7495935E2,1.22902565E1,1.820416E2,2.5969592E2,1.5263419E1,6.5640993E0,5.7261577E0,1.6951468E2,9.018125E1,7.307384E0,1.622073E2,1.8426865E1,7.175439E1,5.622618E0,1.5658469E2,1.1510688E1,6.916177E0,6.523621E1,9.134847E1,5.5408025E0,1.3753744E0],"tree_param":{"num_deleted":"0","num_feature":"16","num_nodes":"23","size_leaf_vector":"1"}},{"base_weights":[2.8929329E-2,-1.1904527E0,8.3240116E-1,-2.5535693E-2,-1.1946591E-1,9.4975364E-1,-2.4596492E-2,2.4192043E-2,-2.3188677E-2,-2.715648E-1,1.0078673E0,-2.8852414E-2,2.2482064E-2,-2.6102409E-2,1.0302732E0,-1.9879479E-2,1.0467213E0,1.9113902E-2,2.7021786E-2],"categories":[],"categories_nodes":[],"categories_segments":[],"categories_sizes":[],"default_left":[0,0,0,0,0,0,0,0,0,0,0,0,0,0,0,0,0,0,0],"id":41,"left_children":[1,3,5,-1,7,9,-1,-1,-1,11,13,-1,-1,-1,15,-1,17,-1,-1],"loss_changes":[4.7401193E2,1.7616455E1,7.174307E1,0E0,2.274226E1,1.9897385E1,0E0,0E0,0E0,2.343467E1,1.50336E1,0E0,0E0,0E0,9.769196E0,0E0,5.927124E0,0E0,0E0],"parents":[2147483647,0,0,1,1,2,2,4,4,5,5,9,9,10,10,14,14,16,16],"right_children":[2,4,6,-1,8,10,-1,-1,-1,12,14,-1,-1,-1,16,-1,18,-1,-1],"split_conditions":[1.5228293E-2,9.692959E-3,4.862069E-1,-2.5535693E-2,7.6389196E-4,1.11827955E-1,-2.4596492E-2,2.4192043E-2,-2.3188677E-2,3.9631438E-1,2.8929338E-1,-2.8852414E-2,2.2482064E-2,-2.6102409E-2,1.2315271E-3,-1.9879479E-2,5.2793837E-1,1.9113902E-2,2.7021786E-2],"split_indices":[8,9,3,0,7,4,0,0,0,8,5,0,0,0,12,0,1,0,0],"split_type":[0,0,0,0,0,0,0,0,0,0,0,0,0,0,0,0,0,0,0],"sum_hessian":[4.81803E2,1.9117947E2,2.9062354E2,1.7674034E2,1.4439146E1,2.7548624E2,1.51373005E1,6.2669435E0,8.172203E0,1.2346149E1,2.6314008E2,6.6949825E0,5.6511664E0,1.9753346E0,2.6116473E2,1.6259868E0,2.5953876E2,2.0297554E2,5.6563213E1],"tree_param":{"num_deleted":"0","num_feature":"16","num_nodes":"19","size_leaf_vector":"1"}},{"base_weights":[3.1352617E-2,-1.1833303E0,8.1801516E-1,4.8947338E-2,-2.5377762E-2,9.338117E-1,-2.4439583E-2,2.218848E-2,-2.2384595E-2,-2.498918E-2,9.5754397E-1,-2.2927133E-2,9.814638E-1,1.0018153E0,-2.4564581E-2,-2.2967638E-2,2.0359468E-2],"categories":[],"categories_nodes":[],"categories_segments":[],"categories_sizes":[],"default_left":[0,0,0,0,0,0,0,0,0,0,0,0,0,0,0,0,0],"id":42,"left_children":[1,3,5,7,-1,9,-1,-1,-1,-1,11,-1,13,15,-1,-1,-1],"loss_changes":[4.5946298E2,1.9989899E1,7.007451E1,1.7636436E1,0E0,1.55336E1,0E0,0E0,0E0,0E0,1.4929062E1,0E0,1.3451233E1,1.0543549E1,0E0,0E0,0E0],"parents":[2147483647,0,0,1,1,2,2,3,3,5,5,10,10,12,12,13,13],"right_children":[2,4,6,8,-1,10,-1,-1,-1,-1,12,-1,14,16,-1,-1,-1],"split_conditions":[1.5228293E-2,2.529141E-1,4.862069E-1,7.6389196E-4,-2.5377762E-2,1.3891625E-1,-2.4439583E-2,2.218848E-2,-2.2384595E-2,-2.498918E-2,1.2315271E-3,-2.2927133E-2,8.576054E-1,2.6345572E-1,-2.4564581E-2,-2.2967638E-2,2.0359468E-2],"split_indices":[8,6,3,7,0,3,0,0,0,0,12,0,6,5,0,0,0],"split_type":[0,0,0,0,0,0,0,0,0,0,0,0,0,0,0,0,0],"sum_hessian":[4.788254E2,1.880122E2,2.9081323E2,1.2234105E1,1.7577809E2,2.7570554E2,1.51076765E1,6.439024E0,5.795081E0,2.4093268E0,2.7329623E2,2.5447454E0,2.7075146E2,2.6882224E2,1.9292485E0,1.4824256E0,2.673398E2],"tree_param":{"num_deleted":"0","num_feature":"16","num_nodes":"17","size_leaf_vector":"1"}},{"base_weights":[7.8251675E-2,-1.1022496E0,8.56997E-1,-2.5332063E-2,1.2526652E-1,9.671084E-1,-2.4264093E-2,2.2718089E-2,-2.3977723E-2,9.8992455E-1,-2.4559522E-2,-2.1741299E-2,1.0109459E0,-2.1679956E-2,1.0243595E0,1.8146522E-2,2.569833E-2],"categories":[],"categories_nodes":[],"categories_segments":[],"categories_sizes":[],"default_left":[0,0,0,0,0,0,0,0,0,0,0,0,0,0,0,0,0],"id":43,"left_children":[1,3,5,-1,7,9,-1,-1,-1,11,-1,-1,13,-1,15,-1,-1],"loss_changes":[4.4733878E2,3.9184555E1,6.799434E1,0E0,3.3147152E1,1.5183197E1,0E0,0E0,0E0,1.3174408E1,0E0,0E0,8.819E0,0E0,7.161682E0,0E0,0E0],"parents":[2147483647,0,0,1,1,2,2,4,4,5,5,9,9,12,12,14,14],"right_children":[2,4,6,-1,8,10,-1,-1,-1,12,-1,-1,14,-1,16,-1,-1],"split_conditions":[1.645555E-2,8.545844E-1,4.862069E-1,-2.5332063E-2,9.0889E-4,8.576054E-1,-2.4264093E-2,2.2718089E-2,-2.3977723E-2,1.2315271E-3,-2.4559522E-2,-2.1741299E-2,2.563657E-1,-2.1679956E-2,4.9454078E-1,1.8146522E-2,2.569833E-2],"split_indices":[14,2,3,0,15,6,0,0,0,12,0,0,5,0,1,0,0],"split_type":[0,0,0,0,0,0,0,0,0,0,0,0,0,0,0,0,0],"sum_hessian":[4.8457526E2,1.924399E2,2.9213535E2,1.6968828E2,2.2751614E1,2.778877E2,1.4247647E1,1.29839735E1,9.76764E0,2.755724E2,2.3153296E0,2.2530158E0,2.7331937E2,1.2311063E0,2.7208826E2,1.9084805E2,8.12402E1],"tree_param":{"num_deleted":"0","num_feature":"16","num_nodes":"17","size_leaf_vector":"1"}},{"base_weights":[6.9756076E-2,-2.5121404E-2,8.055838E-1,9.3008447E-1,-2.4287606E-2,7.3428524E-1,1.1203558E0,-3.161228E-2,8.5344017E-1,8.120195E-1,1.1782612E0,5.0943226E-1,1.2270906E0,-2.8266208E-2,9.967085E-1,2.4219573E-2,5.7535374E-1,1.52181005E-2,-3.3208977E-2,1.6073814E-2,2.645686E-2,2.3762835E-2,8.968986E-3,-3.312981E-2,2.3203528E-2],"categories":[],"categories_nodes":[],"categories_segments":[],"categories_sizes":[],"default_left":[0,0,0,0,0,0,0,0,0,0,0,0,0,0,0,0,0,0,0,0,0,0,0,0,0],"id":44,"left_children":[1,-1,3,5,-1,7,9,-1,11,13,15,17,19,-1,21,-1,23,-1,-1,-1,-1,-1,-1,-1,-1],"loss_changes":[4.6029523E2,0E0,7.742117E1,9.84407E0,0E0,4.107161E1,1.6018677E0,0E0,1.7063095E1,1.2043062E1,1.6393738E0,4.129177E1,1.5823135E0,0E0,2.0363102E0,0E0,1.236522E1,0E0,0E0,0E0,0E0,0E0,0E0,0E0,0E0],"parents":[2147483647,0,0,2,2,3,3,5,5,6,6,8,8,9,9,10,10,11,11,12,12,14,14,16,16],"right_children":[2,-1,4,6,-1,8,10,-1,12,14,16,18,20,-1,22,-1,24,-1,-1,-1,-1,-1,-1,-1,-1],"split_conditions":[9.692959E-3,-2.5121404E-2,4.862069E-1,1.2340962E-1,-2.4287606E-2,2.625616E-1,7.4804837E-1,-3.161228E-2,4.9454078E-1,1.9441025E-1,5.0931054E-1,4.5086706E-1,1.6129032E-3,-2.8266208E-2,3.6453202E-1,2.4219573E-2,2.0698924E-1,1.52181005E-2,-3.3208977E-2,1.6073814E-2,2.645686E-2,2.3762835E-2,8.968986E-3,-3.312981E-2,2.3203528E-2],"split_indices":[9,0,3,9,0,3,2,0,1,9,13,1,0,0,3,0,0,0,0,0,0,0,0,0,0],"split_type":[0,0,0,0,0,0,0,0,0,0,0,0,0,0,0,0,0,0,0,0,0,0,0,0,0],"sum_hessian":[4.6977994E2,1.6741745E2,3.023625E2,2.8531653E2,1.7045956E1,1.4301044E2,1.4230609E2,6.4004083E0,1.3661002E2,2.4874846E1,1.1743125E2,7.235683E1,6.42532E1,1.3964574E0,2.3478388E1,1.1043008E2,7.001175E0,6.542401E1,6.932813E0,1.358338E1,5.066982E1,1.6537086E1,6.9413013E0,1.0731755E0,5.9279995E0],"tree_param":{"num_deleted":"0","num_feature":"16","num_nodes":"25","size_leaf_vector":"1"}},{"base_weights":[5.743845E-2,-1.0131017E0,8.3326495E-1,2.8700244E-1,-2.5108075E-2,9.539272E-1,-2.398224E-2,-2.2672411E-2,6.866101E-1,1.8558927E-1,1.0121565E0,2.2559958E-2,-2.5201522E-2,-2.9528461E-2,2.4416503E-2,1.0259547E0,-1.9297758E-2,9.074136E-1,2.6222741E-2,-4.0919203E-2,1.9976052E-2],"categories":[],"categories_nodes":[],"categories_segments":[],"categories_sizes":[],"default_left":[0,0,0,0,0,0,0,0,0,0,0,0,0,0,0,0,0,0,0,0,0],"id":45,"left_children":[1,3,5,7,-1,9,-1,-1,11,13,15,-1,-1,-1,-1,17,-1,19,-1,-1,-1],"loss_changes":[3.85191E2,6.1756958E1,6.707701E1,1.862164E1,0E0,1.1191742E1,0E0,0E0,2.3034557E1,3.4739037E1,7.4335785E0,0E0,0E0,0E0,0E0,6.756485E0,0E0,4.7734818E1,0E0,0E0,0E0],"parents":[2147483647,0,0,1,1,2,2,3,3,5,5,8,8,9,9,10,10,15,15,17,17],"right_children":[2,4,6,8,-1,10,-1,-1,12,14,16,-1,-1,-1,-1,18,-1,20,-1,-1,-1],"split_conditions":[1.8638017E-2,3.528925E-1,4.862069E-1,5.8012544E-3,-2.5108075E-2,1.1956989E-1,-2.398224E-2,-2.2672411E-2,8.380854E-3,5.268059E-1,8.576054E-1,2.2559958E-2,-2.5201522E-2,-2.9528461E-2,2.4416503E-2,5.157354E-1,-1.9297758E-2,5.762456E-2,2.6222741E-2,-4.0919203E-2,1.9976052E-2],"split_indices":[14,6,3,14,0,4,0,0,14,14,6,0,0,0,0,1,0,13,0,0,0],"split_type":[0,0,0,0,0,0,0,0,0,0,0,0,0,0,0,0,0,0,0,0,0],"sum_hessian":[4.6175995E2,1.9389883E2,2.678611E2,3.0431284E1,1.6346754E2,2.5335034E2,1.4510786E1,6.2775345E0,2.415375E1,1.8142776E1,2.3520757E2,2.0032236E1,4.121514E0,6.799844E0,1.1342934E1,2.3405511E2,1.1524473E0,1.6828595E2,6.5769165E1,4.4091835E0,1.6387675E2],"tree_param":{"num_deleted":"0","num_feature":"16","num_nodes":"21","size_leaf_vector":"1"}},{"base_weights":[1.3280419E-2,-2.4881834E-2,7.3358583E-1,-2.5264898E-2,8.242495E-1,-2.2893438E-2,8.645451E-1,5.675301E-1,1.0984942E0,-2.615465E-2,7.2227794E-1,6.073157E-1,1.1691617E0,2.2364497E-2,7.2188787E-3,2.3165245E-2,-3.780726E-2,1.8483138E-2,2.4601847E-2],"categories":[],"categories_nodes":[],"categories_segments":[],"categories_sizes":[],"default_left":[0,0,0,0,0,0,0,0,0,0,0,0,0,0,0,0,0,0,0],"id":46,"left_children":[1,-1,3,-1,5,-1,7,9,11,-1,13,15,17,-1,-1,-1,-1,-1,-1],"loss_changes":[4.0951974E2,0E0,5.3083908E1,0E0,2.2854218E1,0E0,1.8181519E1,3.614804E1,4.5075073E0,0E0,1.5721333E1,3.1070045E1,8.088074E-1,0E0,0E0,0E0,0E0,0E0,0E0],"parents":[2147483647,0,0,2,2,4,4,6,6,7,7,8,8,10,10,11,11,12,12],"right_children":[2,-1,4,-1,6,-1,8,10,12,-1,14,16,18,-1,-1,-1,-1,-1,-1],"split_conditions":[9.692959E-3,-2.4881834E-2,2.7695403E-1,-2.5264898E-2,1.2315271E-3,-2.2893438E-2,1.2093236E-1,1.1096774E-1,2.8325124E-2,-2.615465E-2,6.0140915E-2,2.4630541E-3,2.0258065E-1,2.2364497E-2,7.2188787E-3,2.3165245E-2,-3.780726E-2,1.8483138E-2,2.4601847E-2],"split_indices":[9,0,5,0,12,0,9,4,12,0,13,12,4,0,0,0,0,0,0],"split_type":[0,0,0,0,0,0,0,0,0,0,0,0,0,0,0,0,0,0,0],"sum_hessian":[4.501546E2,1.6368948E2,2.8646512E2,1.187998E1,2.7458514E2,4.9572544E0,2.696279E2,1.2031072E2,1.4931717E2,8.603322E0,1.117074E2,1.998741E1,1.2932976E2,5.230131E1,5.9406086E1,1.6814644E1,3.172767E0,2.8977528E1,1.0035223E2],"tree_param":{"num_deleted":"0","num_feature":"16","num_nodes":"19","size_leaf_vector":"1"}},{"base_weights":[5.748865E-2,-1.154464E0,8.217902E-1,7.004118E-2,-2.4736252E-2,9.3199587E-1,-2.3839328E-2,2.1332785E-2,-2.1510376E-2,6.520402E-1,1.1221933E0,-4.3922774E-2,1.2035664E0,1.1446458E0,-2.0542197E-2,-3.4683175E-2,4.138696E-1,2.4949512E-2,1.3946111E-2,1.0483072E0,2.4856178E-2,-3.0237874E-2,1.3471057E-2,-3.446313E-2,2.2216963E-2],"categories":[],"categories_nodes":[],"categories_segments":[],"categories_sizes":[],"default_left":[0,0,0,0,0,0,0,0,0,0,0,0,0,0,0,0,0,0,0,0,0,0,0,0,0],"id":47,"left_children":[1,3,5,7,-1,9,-1,-1,-1,11,13,15,17,19,-1,-1,21,-1,-1,23,-1,-1,-1,-1,-1],"loss_changes":[4.362829E2,1.845636E1,6.520314E1,1.53331785E1,0E0,1.3877869E1,0E0,0E0,0E0,4.3574154E1,8.99292E0,4.025201E1,5.3705597E-1,2.1772766E-1,0E0,0E0,2.1527456E1,0E0,0E0,1.7087227E1,0E0,0E0,0E0,0E0,0E0],"parents":[2147483647,0,0,1,1,2,2,3,3,5,5,9,9,10,10,11,11,12,12,13,13,16,16,19,19],"right_children":[2,4,6,8,-1,10,-1,-1,-1,12,14,16,18,20,-1,-1,22,-1,-1,24,-1,-1,-1,-1,-1],"split_conditions":[1.5228293E-2,2.529141E-1,4.862069E-1,7.6389196E-4,-2.4736252E-2,1.2093236E-1,-2.3839328E-2,2.1332785E-2,-2.1510376E-2,4.913295E-1,8.4652466E-1,4.9431376E-2,4.6275325E-2,3.2903227E-1,-2.0542197E-2,-3.4683175E-2,1.7032258E-1,2.4949512E-2,1.3946111E-2,1.2448609E-3,2.4856178E-2,-3.0237874E-2,1.3471057E-2,-3.446313E-2,2.2216963E-2],"split_indices":[8,6,3,7,0,9,0,0,0,1,6,8,9,4,0,0,4,0,0,15,0,0,0,0,0],"split_type":[0,0,0,0,0,0,0,0,0,0,0,0,0,0,0,0,0,0,0,0,0,0,0,0,0],"sum_hessian":[4.6897238E2,1.8117415E2,2.8779825E2,1.1425723E1,1.6974843E2,2.733746E2,1.4423617E1,6.1469655E0,5.278758E0,1.12383385E2,1.6099123E2,5.009261E1,6.2290775E1,1.5978944E2,1.2017906E0,1.0081639E1,4.001097E1,5.597208E1,6.318692E0,8.653859E1,7.325085E1,4.1812825E0,3.582969E1,1.323776E0,8.521481E1],"tree_param":{"num_deleted":"0","num_feature":"16","num_nodes":"25","size_leaf_vector":"1"}},{"base_weights":[6.115611E-2,-1.1460586E0,7.903076E-1,5.222881E-2,-2.4612185E-2,8.968061E-1,-2.3688525E-2,2.1142766E-2,-2.1461517E-2,-2.1222796E-2,9.1545504E-1,7.047968E-1,1.0877541E0,1.1559368E0,1.14231125E-1,1.1118581E0,-2.0338492E-2,-2.644711E-2,2.4326244E-2,-2.0668829E-2,1.8309284E-2,2.3514682E-2,1.513331E-2],"categories":[],"categories_nodes":[],"categories_segments":[],"categories_sizes":[],"default_left":[0,0,0,0,0,0,0,0,0,0,0,0,0,0,0,0,0,0,0,0,0,0,0],"id":48,"left_children":[1,3,5,7,-1,9,-1,-1,-1,-1,11,13,15,17,19,21,-1,-1,-1,-1,-1,-1,-1],"loss_changes":[4.0797742E2,1.7748825E1,6.1820908E1,1.52286E1,0E0,1.1001404E1,0E0,0E0,0E0,0E0,9.129028E0,3.3305775E1,8.645615E0,1.2238182E1,5.1947083E1,2.4440002E0,0E0,0E0,0E0,0E0,0E0,0E0,0E0],"parents":[2147483647,0,0,1,1,2,2,3,3,5,5,10,10,11,11,12,12,13,13,14,14,15,15],"right_children":[2,4,6,8,-1,10,-1,-1,-1,-1,12,14,16,18,20,22,-1,-1,-1,-1,-1,-1,-1],"split_conditions":[1.5228293E-2,2.529141E-1,4.862069E-1,7.6389196E-4,-2.4612185E-2,1.2315271E-3,-2.3688525E-2,2.1142766E-2,-2.1461517E-2,-2.1222796E-2,1.1598922E-1,1.6009852E-2,8.4652466E-1,3.137931E-1,2.2924006E-1,6.6826165E-1,-2.0338492E-2,-2.644711E-2,2.4326244E-2,-2.0668829E-2,1.8309284E-2,2.3514682E-2,1.513331E-2],"split_indices":[8,6,3,7,0,12,0,0,0,0,9,12,6,3,13,6,0,0,0,0,0,0,0],"split_type":[0,0,0,0,0,0,0,0,0,0,0,0,0,0,0,0,0,0,0,0,0,0,0],"sum_hessian":[4.614541E2,1.735483E2,2.8790582E2,1.1463604E1,1.6208469E2,2.7369135E2,1.4214474E1,6.0877514E0,5.375853E0,2.0548275E0,2.716365E2,1.2450424E2,1.4713226E2,7.0041435E1,5.446281E1,1.4593268E2,1.1995884E0,1.1686444E0,6.887279E1,2.2271576E1,3.2191235E1,1.2173109E2,2.4201597E1],"tree_param":{"num_deleted":"0","num_feature":"16","num_nodes":"23","size_leaf_vector":"1"}},{"base_weights":[8.231328E-2,-1.1398798E0,8.085227E-1,8.728456E-2,-2.4494242E-2,4.3404132E-1,1.053096E0,2.0956118E-2,-2.1110952E-2,-2.4681002E-1,1.162137E0,2.620252E-1,1.0973845E0,-3.201233E-2,7.6705426E-1,4.8728636E-1,2.531353E-2,-2.9304702E-2,2.4357626E-2,4.276827E-1,1.1294713E0,1.1031349E0,-3.251585E-2,-3.144449E-2,2.4235958E-2,2.3096878E-2,-2.515275E-2,5.265584E-1,1.1529608E0,-2.1490986E-2,2.4626622E-2,-2.807044E-2,2.2068614E-2,2.3455339E-2,1.2318783E-2],"categories":[],"categories_nodes":[],"categories_segments":[],"categories_sizes":[],"default_left":[0,0,0,0,0,0,0,0,0,0,0,0,0,0,0,0,0,0,0,0,0,0,0,0,0,0,0,0,0,0,0,0,0,0,0],"id":49,"left_children":[1,3,5,7,-1,9,11,-1,-1,13,15,17,19,-1,21,23,-1,-1,-1,25,27,29,-1,-1,-1,-1,-1,31,33,-1,-1,-1,-1,-1,-1],"loss_changes":[4.079591E2,1.7944397E1,2.5943604E1,1.4292197E1,0E0,5.758442E1,5.797058E0,0E0,0E0,8.434327E1,3.2982025E0,1.9155144E1,3.0443115E0,0E0,3.018162E1,1.5452143E1,0E0,0E0,0E0,1.2622334E1,1.6026764E0,1.0130592E1,0E0,0E0,0E0,0E0,0E0,1.0112776E1,8.661194E-1,0E0,0E0,0E0,0E0,0E0,0E0],"parents":[2147483647,0,0,1,1,2,2,3,3,5,5,6,6,9,9,10,10,11,11,12,12,14,14,15,15,19,19,20,20,21,21,27,27,28,28],"right_children":[2,4,6,8,-1,10,12,-1,-1,14,16,18,20,-1,22,24,-1,-1,-1,26,28,30,-1,-1,-1,-1,-1,32,34,-1,-1,-1,-1,-1,-1],"split_conditions":[1.5228293E-2,2.529141E-1,1.7463513E-1,7.6389196E-4,-2.4494242E-2,4.9646756E-1,3.1754695E-2,2.0956118E-2,-2.1110952E-2,1.2981795E-1,5.2793837E-1,2.392473E-1,2.947977E-1,-3.201233E-2,1.9008118E-1,7.462115E-1,2.531353E-2,-2.9304702E-2,2.4357626E-2,2.1901092E-1,1.2448609E-3,1.7849462E-1,-3.251585E-2,-3.144449E-2,2.4235958E-2,2.3096878E-2,-2.515275E-2,4.3481052E-1,1.827957E-1,-2.1490986E-2,2.4626622E-2,-2.807044E-2,2.2068614E-2,2.3455339E-2,1.2318783E-2],"split_indices":[8,6,13,7,0,1,14,0,0,8,1,0,1,0,14,2,0,0,0,1,15,4,0,0,0,0,0,1,0,0,0,0,0,0,0],"split_type":[0,0,0,0,0,0,0,0,0,0,0,0,0,0,0,0,0,0,0,0,0,0,0,0,0,0,0,0,0,0,0,0,0,0,0],"sum_hessian":[4.5759857E2,1.7034404E2,2.8725455E2,1.10124E1,1.5933163E2,1.14583435E2,1.7267111E2,6.028635E0,4.9837646E0,5.9554398E1,5.5029037E1,9.521218E0,1.631499E2,2.525407E1,3.4300327E1,8.078857E0,4.695018E1,3.2020736E0,6.3191447E0,8.114617E0,1.5503528E2,3.0548681E1,3.751644E0,1.7979429E0,6.280915E0,5.888628E0,2.2259896E0,6.6917634E0,1.4834352E2,1.2879548E0,2.9260727E1,1.2100921E0,5.4816713E0,1.4192526E2,6.4182577E0],"tree_param":{"num_deleted":"0","num_feature":"16","num_nodes":"35","size_leaf_vector":"1"}},{"base_weights":[5.6351293E-2,-1.1340399E0,7.8241825E-1,1.4902249E-1,-2.4376523E-2,-4.290791E-1,8.659624E-1,-2.093443E-2,2.1573987E-2,-2.440218E-2,2.272077E-2,-3.9064768E-1,9.3064696E-1,-2.6444811E-2,2.0686796E-2,-2.0912254E-2,9.5686173E-1,9.7042876E-1,-1.9409284E-2,1.556443E-2,2.2164434E-2],"categories":[],"categories_nodes":[],"categories_segments":[],"categories_sizes":[],"default_left":[0,0,0,0,0,0,0,0,0,0,0,0,0,0,0,0,0,0,0,0,0],"id":50,"left_children":[1,3,5,7,-1,9,11,-1,-1,-1,-1,13,15,-1,-1,-1,17,19,-1,-1,-1],"loss_changes":[3.8574765E2,1.8578232E1,2.8425507E1,1.3772219E1,0E0,2.4351398E1,2.1466812E1,0E0,0E0,0E0,0E0,1.9175465E1,1.3807877E1,0E0,0E0,0E0,7.3349E0,5.581024E0,0E0,0E0,0E0],"parents":[2147483647,0,0,1,1,2,2,3,3,5,5,6,6,11,11,12,12,16,16,17,17],"right_children":[2,4,6,8,-1,10,12,-1,-1,-1,-1,14,16,-1,-1,-1,18,20,-1,-1,-1],"split_conditions":[1.5228293E-2,2.529141E-1,4.0222245E-1,2.4539502E-1,-2.4376523E-2,2.7025667E-1,1.1096774E-1,-2.093443E-2,2.1573987E-2,-2.440218E-2,2.272077E-2,3.9631438E-1,1.2315271E-3,-2.6444811E-2,2.0686796E-2,-2.0912254E-2,8.576054E-1,1.1242555E-1,-1.9409284E-2,1.556443E-2,2.2164434E-2],"split_indices":[8,6,5,6,0,13,4,0,0,0,0,8,12,0,0,0,6,8,0,0,0],"split_type":[0,0,0,0,0,0,0,0,0,0,0,0,0,0,0,0,0,0,0,0,0],"sum_hessian":[4.442837E2,1.6810788E2,2.7617578E2,1.0373235E1,1.5773465E2,1.7549505E1,2.5862628E2,4.4822707E0,5.890964E0,1.1804035E1,5.7454705E0,1.2414469E1,2.4621182E2,7.5504355E0,4.8640327E0,2.714134E0,2.4349768E2,2.4228864E2,1.209053E0,1.03944466E2,1.3834416E2],"tree_param":{"num_deleted":"0","num_feature":"16","num_nodes":"21","size_leaf_vector":"1"}},{"base_weights":[-4.5576658E-2,-1.1299816E0,7.017895E-1,-2.427693E-2,-1.1121294E-1,8.099184E-1,-2.310837E-2,2.2525638E-2,-2.1924917E-2,4.7084883E-1,1.0301332E0,7.314897E-1,-3.391428E-2,4.7100404E-1,1.0603783E0,-3.365264E-2,8.709375E-1,-2.3886092E-2,2.3060087E-2,1.1399534E0,8.5763824E-1,1.9109901E-2,-3.0138137E-2,2.3773456E-2,1.7807228E-2,-4.128633E-2,2.0280953E-2],"categories":[],"categories_nodes":[],"categories_segments":[],"categories_sizes":[],"default_left":[0,0,0,0,0,0,0,0,0,0,0,0,0,0,0,0,0,0,0,0,0,0,0,0,0,0,0],"id":51,"left_children":[1,3,5,-1,7,9,-1,-1,-1,11,13,15,-1,17,19,-1,21,-1,-1,23,25,-1,-1,-1,-1,-1,-1],"loss_changes":[3.3517184E2,1.4280182E1,5.0109398E1,0E0,1.8219124E1,1.6836655E1,0E0,0E0,0E0,5.386067E1,1.8647003E0,2.9701756E1,0E0,1.1568347E1,1.1490936E0,0E0,1.7515846E1,0E0,0E0,5.5877686E-2,2.0920334E1,0E0,0E0,0E0,0E0,0E0,0E0],"parents":[2147483647,0,0,1,1,2,2,4,4,5,5,9,9,10,10,11,11,13,13,14,14,16,16,19,19,20,20],"right_children":[2,4,6,-1,8,10,-1,-1,-1,12,14,16,-1,18,20,-1,22,-1,-1,24,26,-1,-1,-1,-1,-1,-1],"split_conditions":[1.5228293E-2,9.692959E-3,4.862069E-1,-2.427693E-2,5.838868E-3,1.8067439E-1,-2.310837E-2,2.2525638E-2,-2.1924917E-2,6.219212E-2,3.102604E-2,1.0752688E-3,-3.391428E-2,4.5728967E-1,3.8214514E-1,-3.365264E-2,1.04932055E-1,-2.3886092E-2,2.3060087E-2,3.4384236E-1,4.1811174E-1,1.9109901E-2,-3.0138137E-2,2.3773456E-2,1.7807228E-2,-4.128633E-2,2.0280953E-2],"split_indices":[8,9,3,0,8,13,0,0,0,12,8,0,0,1,1,0,13,0,0,3,1,0,0,0,0,0,0],"split_type":[0,0,0,0,0,0,0,0,0,0,0,0,0,0,0,0,0,0,0,0,0,0,0,0,0,0,0],"sum_hessian":[4.115854E2,1.6771877E2,2.4386664E2,1.5478535E2,1.2933399E1,2.3098247E2,1.2884178E1,5.668579E0,7.2648206E0,9.218355E1,1.3879892E2,8.287583E1,9.307719E0,7.973267E0,1.3082565E2,3.921439E0,7.895439E1,2.0983462E0,5.874921E0,9.06306E1,4.019504E1,7.682077E1,2.133625E0,7.2681046E1,1.7949556E1,1.4225022E0,3.877254E1],"tree_param":{"num_deleted":"0","num_feature":"16","num_nodes":"27","size_leaf_vector":"1"}},{"base_weights":[2.6047016E-2,-1.0496472E0,7.8292227E-1,-1.1389265E0,2.3829507E-2,8.876512E-1,-2.2968516E-2,-2.4363749E-2,-3.555796E-1,7.364991E-1,1.161902E0,2.1232298E-2,-2.3812953E-2,-3.159947E-2,8.2060105E-1,4.2727125E-1,2.4418546E-2,-2.9249135E-2,9.070947E-1,2.149509E-2,-2.8936662E-2,-2.4109647E-2,1.9222364E-2],"categories":[],"categories_nodes":[],"categories_segments":[],"categories_sizes":[],"default_left":[0,0,0,0,0,0,0,0,0,0,0,0,0,0,0,0,0,0,0,0,0,0,0],"id":52,"left_children":[1,3,5,7,-1,9,-1,-1,11,13,15,-1,-1,-1,17,19,-1,-1,21,-1,-1,-1,-1],"loss_changes":[3.4263855E2,3.6136948E1,5.0981903E1,9.977722E0,0E0,8.880463E0,0E0,0E0,2.116886E1,3.1327705E1,3.0219421E0,0E0,0E0,0E0,3.0829796E1,1.0796776E1,0E0,0E0,1.765818E1,0E0,0E0,0E0,0E0],"parents":[2147483647,0,0,1,1,2,2,3,3,5,5,8,8,9,9,10,10,14,14,15,15,18,18],"right_children":[2,4,6,8,-1,10,-1,-1,12,14,16,-1,-1,-1,18,20,-1,-1,22,-1,-1,-1,-1],"split_conditions":[2.1490535E-2,3.9778325E-1,4.862069E-1,8.545844E-1,2.3829507E-2,2.67051E-1,-2.2968516E-2,-2.4363749E-2,1.7857144E-2,2.625616E-1,2.8633004E-2,2.1232298E-2,-2.3812953E-2,-3.159947E-2,5.6795174E-1,4.731364E-1,2.4418546E-2,-2.9249135E-2,1.11827955E-1,2.149509E-2,-2.8936662E-2,-2.4109647E-2,1.9222364E-2],"split_indices":[14,12,3,2,0,9,0,0,12,3,12,0,0,0,5,2,0,0,4,0,0,0,0],"split_type":[0,0,0,0,0,0,0,0,0,0,0,0,0,0,0,0,0,0,0,0,0,0,0],"sum_hessian":[4.1883652E2,1.7282523E2,2.460113E2,1.6667714E2,6.148084E0,2.3386992E2,1.2141395E1,1.5085785E2,1.5819285E1,1.5314835E2,8.072158E1,5.764707E0,1.0054579E1,4.742284E0,1.4840605E2,6.616116E0,7.410546E1,4.8364525E0,1.4356961E2,5.2342587E0,1.3818576E0,3.048402E0,1.405212E2],"tree_param":{"num_deleted":"0","num_feature":"16","num_nodes":"23","size_leaf_vector":"1"}},{"base_weights":[4.8652705E-2,-1.1197518E0,7.552031E-1,1.8167566E-1,-2.4090054E-2,8.630797E-1,-2.308678E-2,2.0325197E-2,-1.9905724E-2,5.5506545E-1,1.0759882E0,3.3589122E-1,1.0458646E0,7.487684E-1,1.1567606E0,-5.863541E-1,9.1688067E-1,2.4762971E-2,-2.7721493E-2,-3.3157032E-2,9.2968976E-1,2.3861472E-2,4.4638342E-1,-3.7820328E-2,1.9350635E-2,-2.495836E-2,2.0535957E-2,2.0845901E-2,-2.0983746E-2,2.1498943E-2,-3.3278693E-2],"categories":[],"categories_nodes":[],"categories_segments":[],"categories_sizes":[],"default_left":[0,0,0,0,0,0,0,0,0,0,0,0,0,0,0,0,0,0,0,0,0,0,0,0,0,0,0,0,0,0,0],"id":53,"left_children":[1,3,5,7,-1,9,-1,-1,-1,11,13,15,17,19,21,23,25,-1,-1,-1,27,-1,29,-1,-1,-1,-1,-1,-1,-1,-1],"loss_changes":[3.5353534E2,1.8020386E1,5.596158E1,1.1557849E1,0E0,1.6002884E1,0E0,0E0,0E0,1.1000011E1,3.0616302E0,4.0413643E1,1.6728302E1,1.5585829E1,2.494629E0,6.1377857E1,1.223843E1,0E0,0E0,0E0,7.9214363E0,0E0,1.1478352E1,0E0,0E0,0E0,0E0,0E0,0E0,0E0,0E0],"parents":[2147483647,0,0,1,1,2,2,3,3,5,5,9,9,10,10,11,11,12,12,13,13,14,14,15,15,16,16,20,20,22,22],"right_children":[2,4,6,8,-1,10,-1,-1,-1,12,14,16,18,20,22,24,26,-1,-1,-1,28,-1,30,-1,-1,-1,-1,-1,-1,-1,-1],"split_conditions":[1.55738145E-2,2.529141E-1,4.862069E-1,3.4251967E-1,-2.4090054E-2,1.1159542E-1,-2.308678E-2,2.0325197E-2,-1.9905724E-2,8.1457764E-1,1.4242576E-1,1.9174635E-1,3.623553E-2,5.42668E-1,5.0931054E-1,4.591133E-1,4.0691882E-2,2.4762971E-2,-2.7721493E-2,-3.3157032E-2,2.5033918E-1,2.3861472E-2,1.6129032E-3,-3.7820328E-2,1.9350635E-2,-2.495836E-2,2.0535957E-2,2.0845901E-2,-2.0983746E-2,2.1498943E-2,-3.3278693E-2],"split_indices":[8,6,3,10,0,14,0,0,0,6,13,13,13,6,13,3,8,0,0,0,14,0,0,0,0,0,0,0,0,0,0],"split_type":[0,0,0,0,0,0,0,0,0,0,0,0,0,0,0,0,0,0,0,0,0,0,0,0,0,0,0,0,0,0,0],"sum_hessian":[4.2622473E2,1.6039642E2,2.658283E2,9.736701E0,1.5065971E2,2.5213249E2,1.3695817E1,5.7768636E0,3.959837E0,1.0452435E2,1.4760814E2,7.342128E1,3.1103075E1,3.1255987E1,1.1635215E2,2.837323E1,4.504805E1,2.927898E1,1.8240949E0,1.614639E0,2.9641348E1,1.10047264E2,6.3048882E0,1.5305542E1,1.3067687E1,1.6764964E0,4.337155E1,2.8493267E1,1.1480808E0,5.2359657E0,1.0689228E0],"tree_param":{"num_deleted":"0","num_feature":"16","num_nodes":"31","size_leaf_vector":"1"}},{"base_weights":[-2.6262773E-3,-1.1197493E0,7.206914E-1,1.1662988E-1,-2.4066031E-2,2.1465291E-1,1.0357618E0,2.2070292E-2,-2.0850407E-2,-5.304073E-1,2.461128E-2,1.0940018E0,3.57267E-1,-1.1489403E0,4.1156265E-1,8.5794085E-1,2.4194546E-2,-3.621005E-2,1.8021567E-2,-1.6843817E0,1.9894594E-2,9.395756E-1,-3.2012936E-2,-3.639784E-2,1.0569042E0,-2.4922673E-2,-3.9071392E-2,2.3439802E-2,-2.2032598E-2,-1.6838524E-2,2.2339234E-2],"categories":[],"categories_nodes":[],"categories_segments":[],"categories_sizes":[],"default_left":[0,0,0,0,0,0,0,0,0,0,0,0,0,0,0,0,0,0,0,0,0,0,0,0,0,0,0,0,0,0,0],"id":54,"left_children":[1,3,5,7,-1,9,11,-1,-1,13,-1,15,17,19,21,23,-1,-1,-1,25,-1,27,-1,-1,29,-1,-1,-1,-1,-1,-1],"loss_changes":[3.3098474E2,1.677037E1,3.9419357E1,1.3850543E1,0E0,7.38204E1,5.653778E0,0E0,0E0,3.3371952E1,0E0,2.7973785E0,1.7637146E1,4.1100693E1,2.6065535E1,2.8361923E1,0E0,0E0,0E0,8.516464E-1,0E0,1.0277452E1,0E0,0E0,6.280075E0,0E0,0E0,0E0,0E0,0E0,0E0],"parents":[2147483647,0,0,1,1,2,2,3,3,5,5,6,6,9,9,11,11,12,12,13,13,14,14,15,15,19,19,21,21,24,24],"right_children":[2,4,6,8,-1,10,12,-1,-1,14,-1,16,18,20,22,24,-1,-1,-1,26,-1,28,-1,-1,30,-1,-1,-1,-1,-1,-1],"split_conditions":[1.645555E-2,2.529141E-1,1.8067439E-1,7.6389196E-4,-2.4066031E-2,5.2793837E-1,6.8042165E-1,2.2070292E-2,-2.0850407E-2,1.7979953E-1,2.461128E-2,3.1655914E-1,4.7527295E-1,2.3443647E-1,1.9008118E-1,1.0737832E-1,2.4194546E-2,-3.621005E-2,1.8021567E-2,6.3015985E-1,1.9894594E-2,7.322597E-2,-3.2012936E-2,-3.639784E-2,2.8195247E-1,-2.4922673E-2,-3.9071392E-2,2.3439802E-2,-2.2032598E-2,-1.6838524E-2,2.2339234E-2],"split_indices":[14,6,13,7,0,1,6,0,0,8,0,4,1,14,14,8,0,0,0,5,0,13,0,0,1,0,0,0,0,0,0],"split_type":[0,0,0,0,0,0,0,0,0,0,0,0,0,0,0,0,0,0,0,0,0,0,0,0,0,0,0,0,0,0,0],"sum_hessian":[4.076182E2,1.5998398E2,2.4763423E2,1.0101999E1,1.4988197E2,9.566568E1,1.5196855E2,5.4823756E0,4.619623E0,5.54656E1,4.020008E1,1.3939122E2,1.2577331E1,3.3348194E1,2.2117403E1,4.8622627E1,9.0768585E1,2.0552602E0,1.0522071E1,2.685473E1,6.4934654E0,1.794232E1,4.175084E0,2.7993612E0,4.582327E1,1.2360539E1,1.4494191E1,1.6490519E1,1.4518E0,1.0057541E0,4.4817513E1],"tree_param":{"num_deleted":"0","num_feature":"16","num_nodes":"31","size_leaf_vector":"1"}},{"base_weights":[6.356537E-2,-1.112614E0,7.452737E-1,1.8516758E-1,-2.3938447E-2,8.428187E-1,-2.2746556E-2,2.0756206E-2,-1.998468E-2,5.7466024E-1,1.0559691E0,-3.3055037E-2,8.928507E-1,-1.5177342E-2,1.0750214E0,-3.770943E-2,7.897069E-1,9.4647986E-1,-2.3351219E-2,6.6074497E-1,2.2153769E-2,2.2569906E-2,-2.9679216E-2,5.0594597E-3,2.0894332E-2,-3.5592042E-2,2.317303E-2],"categories":[],"categories_nodes":[],"categories_segments":[],"categories_sizes":[],"default_left":[0,0,0,0,0,0,0,0,0,0,0,0,0,0,0,0,0,0,0,0,0,0,0,0,0,0,0],"id":55,"left_children":[1,3,5,7,-1,9,-1,-1,-1,11,13,15,17,-1,19,-1,21,23,-1,25,-1,-1,-1,-1,-1,-1,-1],"loss_changes":[3.4412424E2,1.7454346E1,5.0843704E1,1.1614054E1,0E0,1.4188049E1,0E0,0E0,0E0,2.261956E1,5.7608643E0,6.4146194E1,9.581642E0,0E0,1.1890869E0,0E0,2.4145584E1,4.867012E0,0E0,1.7679407E1,0E0,0E0,0E0,0E0,0E0,0E0,0E0],"parents":[2147483647,0,0,1,1,2,2,3,3,5,5,9,9,10,10,11,11,12,12,14,14,16,16,17,17,19,19],"right_children":[2,4,6,8,-1,10,-1,-1,-1,12,14,16,18,-1,20,-1,22,24,-1,26,-1,-1,-1,-1,-1,-1,-1],"split_conditions":[1.55738145E-2,2.529141E-1,4.862069E-1,1.6129032E-1,-2.3938447E-2,1.1159542E-1,-2.2746556E-2,2.0756206E-2,-1.998468E-2,3.0408603E-1,1.2315271E-3,4.3004927E-1,1.0399746E-1,-1.5177342E-2,1.2448609E-3,-3.770943E-2,4.6275325E-2,2.625616E-1,-2.3351219E-2,2.7268818E-1,2.2153769E-2,2.2569906E-2,-2.9679216E-2,5.0594597E-3,2.0894332E-2,-3.5592042E-2,2.317303E-2],"split_indices":[8,6,3,4,0,14,0,0,0,4,12,3,14,0,15,0,9,3,0,4,0,0,0,0,0,0,0],"split_type":[0,0,0,0,0,0,0,0,0,0,0,0,0,0,0,0,0,0,0,0,0,0,0,0,0,0,0],"sum_hessian":[4.2714935E2,1.565005E2,2.7064886E2,9.473648E0,1.4702686E2,2.578414E2,1.2807462E1,5.58024E0,3.8934088E0,1.15823395E2,1.42018E2,4.0111027E1,7.5712364E1,1.0720079E0,1.40946E2,1.193906E1,2.8171968E1,7.431861E1,1.393757E0,1.1853194E1,1.290928E2,2.4956923E1,3.2150445E0,9.664784E0,6.4653824E1,1.5723927E0,1.0280802E1],"tree_param":{"num_deleted":"0","num_feature":"16","num_nodes":"27","size_leaf_vector":"1"}},{"base_weights":[6.623455E-2,-1.1052588E0,7.549944E-1,-2.3757057E-2,-2.6650542E-1,8.4985185E-1,-2.264913E-2,1.8660277E-2,-2.1957928E-2,5.501661E-1,1.0730078E0,-3.0782437E-2,6.979895E-1,7.221288E-1,1.1306235E0,-2.2830572E-2,7.8438115E-1,1.0190489E0,-3.9493155E-2,9.794723E-1,2.4000665E-2,-6.8707564E-3,1.8258987E-2,1.0872956E-2,2.3369567E-2,2.955498E-3,2.2234187E-2],"categories":[],"categories_nodes":[],"categories_segments":[],"categories_sizes":[],"default_left":[0,0,0,0,0,0,0,0,0,0,0,0,0,0,0,0,0,0,0,0,0,0,0,0,0,0,0],"id":56,"left_children":[1,3,5,-1,7,9,-1,-1,-1,11,13,-1,15,17,19,-1,21,23,-1,25,-1,-1,-1,-1,-1,-1,-1],"loss_changes":[3.4117087E2,1.053035E1,4.8625946E1,0E0,1.630796E1,1.6399765E1,0E0,0E0,0E0,3.5197025E1,2.1061096E0,0E0,1.7402641E1,2.0555561E1,1.0882568E-1,0E0,1.4786869E1,8.9356613E-1,0E0,4.6707497E0,0E0,0E0,0E0,0E0,0E0,0E0,0E0],"parents":[2147483647,0,0,1,1,2,2,4,4,5,5,9,9,10,10,12,12,13,13,14,14,16,16,17,17,19,19],"right_children":[2,4,6,-1,8,10,-1,-1,-1,12,14,-1,16,18,20,-1,22,24,-1,26,-1,-1,-1,-1,-1,-1,-1],"split_conditions":[1.5228293E-2,8.545844E-1,4.862069E-1,-2.3757057E-2,8.571866E-1,1.1159542E-1,-2.264913E-2,1.8660277E-2,-2.1957928E-2,2.625616E-1,1.8580645E-1,-3.0782437E-2,1.1096774E-1,1.20430104E-1,4.8337437E-2,-2.2830572E-2,2.1505377E-3,3.9631438E-1,-3.9493155E-2,4.059088E-1,2.4000665E-2,-6.8707564E-3,1.8258987E-2,1.0872956E-2,2.3369567E-2,2.955498E-3,2.2234187E-2],"split_indices":[8,2,3,0,2,14,0,0,0,3,4,0,4,4,12,0,0,8,0,1,0,0,0,0,0,0,0],"split_type":[0,0,0,0,0,0,0,0,0,0,0,0,0,0,0,0,0,0,0,0,0,0,0,0,0,0,0],"sum_hessian":[4.2079437E2,1.5557547E2,2.652189E2,1.4125003E2,1.4325451E1,2.5305107E2,1.216783E1,5.8143525E0,8.511099E0,1.0948472E2,1.4356635E2,